tree
version=v4
num_class=1
num_tree_per_iteration=1
label_index=0
max_feature_idx=9
objective=binary sigmoid:1
feature_names=Column_0 Column_1 Column_2 Column_3 Column_4 Column_5 Column_6 Column_7 Column_8 Column_9
feature_infos=[-2.5649482593083706:2.4134092459356236] [-2.9695734018913993:2.3351928761867544] [-1.90325757867454:3.7871972560865625] [-1.2092449916875267:4.7262928054722728] [-2.4165436420338939:3.3448875857447398] [-3.471479451244774:2.0888353604044805] [-2.2266716048940522:2.9245307283369844] [-1.5764591986454237:4.2415106727276628] [-2.4089704142939152:2.5963751851022518] [-1.0436885140144612:0.95814027516081668]
tree_sizes=898 1055 1067 1074 1068 1075 1077 1174 1183 975 971 1179 1071 973 1074 973 1175 1074 1073 1073 1076 1071 1077 1078 978 1078 1187 1074 974 972 978 1080 968 1182 971 1191 1077 1069 1187 1187 971 978 974 1068 984 1075 1081 775 1085 974 984 1192 1091 1086 979 774 1297 775 1293 978 1095 773 1086 1201 1088 1287 1199 1089 883 1196 781 1080 1087 1090 885 1088 1200 773 1095 1084 1091 1097 1198 1299 986 888 994 1099 1193 990 889 1204 1201 1202 885 1098 1102 1098 1198 999

Tree=0
num_leaves=8
num_cat=0
split_feature=7 8 1 4 2 6 0
split_gain=59.4185 42.9705 13.0155 10.909 5.14286 1.96248 0.124528
threshold=-0.40625440344884972 -0.015093112870303156 -0.47191261262960182 -0.12855112933431548 -0.55526379998832553 -0.42079032715213704 -0.12141165584640604
decision_type=2 2 2 2 2 2 2
left_child=2 5 -1 -3 -4 6 -2
right_child=1 3 4 -5 -6 -7 -8
leaf_value=0 0.18000000000000002 -0.16521739130434782 -0.079999999999999918 0.022222222222222227 -0.20000000000000007 0.13142857142857139 0.20000000000000001
leaf_weight=6.5000000000000027 4.9999999999999991 5.75 5.0000000000000044 6.7499999999999982 12.499999999999996 8.7500000000000018 8.2499999999999982
leaf_count=26 20 23 20 27 50 35 33
internal_value=0 0.084058 -0.120833 -0.064 -0.165714 0.168182 0.192453
internal_weight=58.5 34.5 24 12.5 17.5 22 13.25
internal_count=234 138 96 50 70 88 53
is_linear=0
shrinkage=0.1


Tree=1
num_leaves=9
num_cat=0
split_feature=7 8 1 9 2 6 0 0
split_gain=48.431 35.1805 10.6886 5.82016 4.2849 1.10929 0.000928997 7.10543e-15
threshold=-0.40625440344884972 0.26147933286996211 -0.47191261262960182 1.0000000180025095e-35 -0.55526379998832553 -0.42079032715213704 0.55617316113045157 -0.25425713042089665
decision_type=2 2 2 2 2 2 2 2
left_child=2 3 -1 -2 -4 6 -5 -6
right_child=1 -3 4 5 7 -7 -8 -9
leaf_value=0 0.047576394259230076 -0.087909801106619986 -0.07211953552634344 0.18363199368323957 -0.1818730811900576 0.13334789105000824 0.18187308119005768 -0.18187308119005793
leaf_weight=6.5000000000000027 5.4714470654726055 9.4671456664800626 4.9920085072517439 6.6943169534206408 7.1779806017875707 7.2219186872243872 5.4453645944595337 5.1978480219840932
leaf_count=26 22 38 20 27 29 29 22 21
internal_value=-1.90753e-06 0.0761145 -0.109388 0.138646 -0.150327 0.164381 0.182843 -0.181873
internal_weight=58.168 34.3002 23.8678 24.833 17.3678 19.3616 12.1397 12.3758
internal_count=234 138 96 100 70 78 49 50
is_linear=0
shrinkage=0.1


Tree=2
num_leaves=9
num_cat=0
split_feature=7 8 1 1 2 7 5 2
split_gain=40.2009 33.0605 11.581 10.2416 1.54045 0.947646 0.597416 0.0157977
threshold=-0.45478548667822177 -0.015093112870303156 -0.47191261262960182 0.5448342573353776 0.25004870575812027 -0.66273957141054785 0.20530369981670543 0.059173910462150321
decision_type=2 2 2 2 2 2 2 2
left_child=2 4 -1 -3 6 7 -2 -4
right_child=1 3 5 -5 -6 -7 -8 -9
leaf_value=0.0079999999999999967 0.13452616913214907 -0.15396189521182774 -0.17632494307042931 0.022865635332295187 0.10800584684140407 -0.12131988832666665 0.17819820276233878 -0.16825816740612268
leaf_weight=6.2500000000000027 5.1205006092786816 6.1912246346473676 4.8891646564006805 6.9547762274742126 9.2466876506805402 5.8312066197395298 8.0673753321170789 4.8220565915107727
leaf_count=25 21 25 20 28 38 24 33 20
internal_value=1.19785e-06 0.0655117 -0.106958 -0.0604128 0.1393 -0.153185 0.161242 -0.172319
internal_weight=57.373 35.5806 21.7924 13.146 22.4346 15.5424 13.1879 9.71122
internal_count=234 145 89 53 92 64 54 40
is_linear=0
shrinkage=0.1


Tree=3
num_leaves=9
num_cat=0
split_feature=9 3 7 8 5 6 7 2
split_gain=35.6871 18.2522 15.3919 3.82619 3.68149 0.972932 0.301025 0.00240659
threshold=1.0000000180025095e-35 0.11694013204475658 -0.45478548667822177 -0.13838100006336271 0.41145438430025555 -0.42079032715213704 -0.66273957141054785 0.25004870575812027
decision_type=2 2 2 2 2 2 2 2
left_child=1 4 -2 5 6 7 -1 -4
right_child=2 -3 3 -5 -6 -7 -8 -9
leaf_value=-0.1480889938054602 -0.050038610011116619 0.046238137186828003 0.15863314221921493 0.040249636354391098 -0.072387785626289725 0.11128195487268332 -0.1788223302155181 0.16169065926046081
leaf_weight=5.6644568890333211 7.1986365914344814 7.8272068947553626 5.3579244911670738 4.8651557266712144 6.3418455719947806 6.756391420960429 7.2867859452962893 4.9551335126161575
leaf_count=24 30 32 23 20 26 28 30 21
internal_value=-7.49869e-06 -0.0825596 0.0768407 0.118481 -0.134813 0.140778 -0.165381 0.160102
internal_weight=56.2535 27.1203 29.1332 21.9346 19.2931 17.0694 12.9512 10.3131
internal_count=234 112 122 92 80 72 54 44
is_linear=0
shrinkage=0.1


Tree=4
num_leaves=9
num_cat=0
split_feature=9 3 7 8 5 6 3 2
split_gain=29.627 15.27 12.9062 3.41928 3.27065 0.935789 0.239511 0.00147233
threshold=1.0000000180025095e-35 0.11694013204475658 -0.45478548667822177 -0.13838100006336271 0.41145438430025555 -0.42079032715213704 -0.63889941540659645 0.25004870575812027
decision_type=2 2 2 2 2 2 2 2
left_child=1 4 -2 5 6 7 -1 -4
right_child=2 -3 3 -5 -6 -7 -8 -9
leaf_value=-0.1365971867902841 -0.045434483029726698 0.041684146785949588 0.15003402587951653 0.036242551457442838 -0.065759954212884289 0.102563465275783 -0.16504675241564437 0.15248082749062783
leaf_weight=4.7939738780260122 7.1385396420955685 7.8147163093090048 5.1111304014921242 4.8628501892089799 6.2858677953481665 6.6055129468441036 7.7319325506687182 4.7399562150239944
leaf_count=21 30 32 23 20 26 28 33 21
internal_value=7.33701e-06 -0.0758111 0.0709462 0.109915 -0.12462 0.131685 -0.154158 0.151211
internal_weight=55.0845 26.6265 28.458 21.3194 18.8118 16.4566 12.5259 9.85109
internal_count=234 112 122 92 80 72 54 44
is_linear=0
shrinkage=0.1


Tree=5
num_leaves=9
num_cat=0
split_feature=9 5 7 7 8 8 5 3
split_gain=24.7164 13.8684 10.8852 9.72334 3.09625 0.946161 0.927109 0.0519442
threshold=1.0000000180025095e-35 0.25895774583629455 -0.45478548667822177 -0.30384362567048234 -0.13838100006336271 0.24746154255456046 0.19612932988545459 -0.60097139129107202
decision_type=2 2 2 2 2 2 2 2
left_child=1 5 -2 -3 6 -1 -4 -7
right_child=2 3 4 -5 -6 7 -8 -9
leaf_value=-0.10284622764335338 -0.041264121566976057 -0.069109355193967978 0.14712618589289508 0.11458776532311124 0.032654799949692184 -0.14817384806479264 0.098584241431472264 -0.16342375283991079
leaf_weight=5.3516831547021892 7.0773110091686275 6.6393538564443588 8.2454575449228305 5.0908565670251829 4.8576742410659763 4.3478203266859046 7.5256529003381738 4.5932698249816886
leaf_count=23 30 28 38 21 20 20 34 20
internal_value=1.57492e-05 -0.0699679 0.065748 0.0106143 0.102462 -0.136103 0.123963 -0.156008
internal_weight=53.7291 26.023 27.7061 11.7302 20.6288 14.2928 15.7711 8.94109
internal_count=234 112 122 49 92 63 72 40
is_linear=0
shrinkage=0.1


Tree=6
num_leaves=9
num_cat=0
split_feature=9 3 7 8 5 6 3 2
split_gain=20.6825 11.9963 9.21311 2.82311 2.67791 0.986566 0.219321 0.000174202
threshold=1.0000000180025095e-35 0.11694013204475658 -0.45478548667822177 -0.13838100006336271 0.41145438430025555 -0.42079032715213704 -0.63889941540659645 0.30643939115975261
decision_type=2 2 2 2 2 2 2 2
left_child=1 4 -2 5 6 7 -1 -4
right_child=2 -3 3 -5 -6 -7 -8 -9
leaf_value=-0.12113791346819583 -0.037477764381140283 0.039406412286395444 0.13821125683704147 0.029435044080933712 -0.057082599709939813 0.086628046794296351 -0.14960336584229011 0.13910229042040806
leaf_weight=4.3687974661588704 7.0164019763469723 7.6927782595157614 4.8005797713994998 4.8505041152238819 6.1681395918130866 6.2157211005687723 7.1147161275148409 4.0412208437919617
leaf_count=21 30 32 24 20 26 28 33 20
internal_value=2.57825e-05 -0.0648095 0.0610564 0.0957839 -0.110228 0.117157 -0.138774 0.138619
internal_weight=52.2689 25.3444 26.9244 19.908 17.6517 15.0575 11.4835 8.8418
internal_count=234 112 122 92 80 72 54 44
is_linear=0
shrinkage=0.1


Tree=7
num_leaves=10
num_cat=0
split_feature=9 5 7 7 5 0 8 4 3
split_gain=17.3519 11.2653 7.82921 7.50793 2.77834 2.21921 1.02205 0.56641 0.0526
threshold=1.0000000180025095e-35 0.25895774583629455 -0.45478548667822177 -0.30384362567048234 0.19612932988545459 0.07305121900484475 0.24746154255456046 -0.37862738715289973 -0.60097139129107202
decision_type=2 2 2 2 2 2 2 2 2
left_child=1 6 -2 -3 7 -6 -1 -4 -8
right_child=2 3 4 -5 5 -7 8 -9 -10
leaf_value=-0.087871454590208911 -0.03403450015180217 -0.058804903689366819 0.099768640457195037 0.10446757668505582 0.097000269995994148 0.00082470561254968091 -0.13668809898735068 0.14910359973993068 -0.1527903235971575
leaf_weight=5.0646523535251644 6.9568671733140972 6.4564221352338791 4.0479442477226284 4.9955346286296827 5.1237575113773328 4.511944055557251 3.8838339745998374 5.4742352068424216 4.2471210509538642
leaf_count=23 30 28 20 21 24 21 20 27 20
internal_value=2.77829e-05 -0.0601532 0.0568276 0.0124173 0.0898227 0.0519658 -0.123134 0.128131 -0.145099
internal_weight=50.7623 24.6476 26.1147 11.452 19.1579 9.6357 13.1956 9.52218 8.13096
internal_count=234 112 122 49 92 45 63 47 40
is_linear=0
shrinkage=0.1


Tree=8
num_leaves=10
num_cat=0
split_feature=9 5 7 3 8 8 6 0 5
split_gain=14.5549 9.71349 6.61959 6.45416 2.80714 1.01814 1.00006 0.0172212 0.000382203
threshold=1.0000000180025095e-35 0.25895774583629455 -0.45478548667822177 -0.035488221580747319 -0.13838100006336271 0.24746154255456046 -0.42079032715213704 -0.49839257742650961 0.091211360697847951
decision_type=2 2 2 2 2 2 2 2 2
left_child=1 5 -2 -3 6 -1 8 -7 -4
right_child=2 3 4 -5 -6 7 -8 -9 -10
leaf_value=-0.081030618839768198 -0.030899991539786266 -0.054565802779068917 0.12960767312512314 0.098067275391149039 0.018060676942875782 -0.13434509882849888 0.075709985419756126 -0.14383846403343895 0.13100512824752916
leaf_weight=4.9491522312164324 6.8994508385658291 6.4156781882047653 4.0529984831810033 4.8758920729160291 4.8021809160709354 3.7080541551113129 5.8751699924468994 3.9424689710140228 3.7846773862838745
leaf_count=23 30 28 23 21 20 20 28 20 21
internal_value=2.5898e-05 -0.0560114 0.0527045 0.0113438 0.083859 -0.116374 0.106901 -0.139237 0.130282
internal_weight=49.3057 23.8912 25.4145 11.2916 18.515 12.5997 13.7128 7.65052 7.83768
internal_count=234 112 122 49 92 63 72 40 44
is_linear=0
shrinkage=0.1


Tree=9
num_leaves=8
num_cat=0
split_feature=9 3 7 8 5 0 3
split_gain=12.2575 8.69289 5.64654 2.93906 2.22861 1.07965 0.234361
threshold=1.0000000180025095e-35 0.11694013204475658 -0.45478548667822177 -0.088991879631854301 0.41145438430025555 0.24699585022506601 -0.63889941540659645
decision_type=2 2 2 2 2 2 2
left_child=1 4 -2 5 6 -4 -1
right_child=2 -3 3 -5 -6 -7 -8
leaf_value=-0.10372625086197562 -0.028044892037945912 0.037352948742350942 0.13339894662102958 0.0097184634141909577 -0.046151159965464504 0.076080086486532125 -0.13570989157515517
leaf_weight=3.6724750548601151 6.8446579873561886 7.3712224513292304 6.1484289914369619 4.569354593753812 5.9783099740743628 7.0589091628789902 6.090495705604555
leaf_count=21 30 32 34 19 26 39 33
internal_value=3.44442e-05 -0.0522679 0.0491316 0.0788473 -0.0942349 0.102764 -0.123679
internal_weight=47.7339 23.1125 24.6214 17.7767 15.7413 13.2073 9.76297
internal_count=234 112 122 92 80 73 54
is_linear=0
shrinkage=0.1


Tree=10
num_leaves=8
num_cat=0
split_feature=8 7 0 4 2 0 7
split_gain=10.9064 16.5814 5.12728 3.61224 2.43739 3.62306 4.34082
threshold=0.26147933286996211 -0.71422400731152436 -0.58349065309777981 -0.37862738715289973 -1.0932829293916646 0.68268219920849849 0.23274570091660599
decision_type=2 2 2 2 2 2 2
left_child=1 -1 -2 -4 -3 6 -6
right_child=2 4 3 -5 5 -7 -8
leaf_value=-0.11594790080749034 -0.14391811303990726 0.13892188651111237 -0.10287363031793761 0.014253836694158258 -0.025245706494992651 0.12093916833075802 0.092445467888064278
leaf_weight=5.6962788105011013 5.4120020419359234 4.6656288504600587 4.0187996327877054 7.6360731720924351 6.9839068502187711 6.1840454041957846 5.6848679482936859
leaf_count=27 29 24 20 35 34 34 31
internal_value=2.88673e-05 0.0371322 -0.0634838 -0.0261337 0.0742089 0.0581939 0.0275659
internal_weight=46.2816 29.2147 17.0669 11.6549 23.5184 18.8528 12.6688
internal_count=234 150 84 55 123 99 65
is_linear=0
shrinkage=0.1


Tree=11
num_leaves=10
num_cat=0
split_feature=9 5 5 3 5 8 4 8 0
split_gain=9.29768 7.68243 4.84485 4.2645 3.25746 3.07956 1.19315 1.0066 0.0163228
threshold=1.0000000180025095e-35 0.25895774583629455 0.71274920771512673 -0.60097139129107202 -0.62064007747545225 -0.24154429547323061 -0.23502846476911129 0.24746154255456046 -0.49839257742650961
decision_type=2 2 2 2 2 2 2 2 2
left_child=1 7 -3 -2 -5 6 -6 -1 -9
right_child=3 2 -4 4 5 -7 -8 8 -10
leaf_value=-0.069276255968113779 -0.021252804580828708 0.069994461954701021 -0.066607484529880842 0.15957909794203179 0.13486191121440447 -0.012234560062379086 0.055306014474916565 -0.12529176741015266 -0.13533507601905698
leaf_weight=4.5459877997636813 6.9308858215808895 6.278966471552847 4.4269135445356369 3.3951058834791246 3.2504936903715169 4.9567957520484835 4.4881238490343094 3.0485075563192368 3.4491421580314636
leaf_count=23 35 29 20 18 20 22 27 20 20
internal_value=3.0968e-05 -0.0468537 0.0135091 0.0443253 0.0725727 0.0493047 0.0887223 -0.10537 -0.130623
internal_weight=44.7709 21.7495 10.7059 23.0214 16.0905 12.6954 7.73862 11.0436 6.49765
internal_count=234 112 49 122 87 69 47 63 40
is_linear=0
shrinkage=0.1


Tree=12
num_leaves=9
num_cat=0
split_feature=6 9 5 3 3 5 2 5
split_gain=8.66953 8.7683 7.80023 4.19121 3.4468 1.80067 2.51186 1.08128
threshold=1.1778586728161158 1.0000000180025095e-35 0.25895774583629455 -0.63889941540659645 -0.035488221580747319 -0.62064007747545225 -0.38222405365978002 -0.66914263138569907
decision_type=2 2 2 2 2 2 2 2
left_child=1 2 7 -3 -4 -5 -7 -1
right_child=-2 3 4 5 -6 6 -8 -9
leaf_value=-0.1364954988425546 -0.1298153930868132 -0.0194852781639939 -0.027401477787375974 0.15267696268037478 0.096862704067454133 0.11787738878605183 0.027315602365617093 -0.068434722610896725
leaf_weight=4.0825990661978722 4.6001657098531714 4.9864054471254358 4.6349238753318787 3.2036209255456933 4.3057961612939817 5.6219454854726783 6.7279264479875556 5.4506559967994708
leaf_count=24 23 25 21 18 20 30 40 33
internal_value=2.42968e-05 0.0153338 -0.0346543 0.0602941 0.0324434 0.0858712 0.0685414 -0.0975816
internal_weight=43.614 39.0139 18.474 20.5399 8.94072 15.5535 12.3499 9.53326
internal_count=234 211 98 113 41 88 70 57
is_linear=0
shrinkage=0.1


Tree=13
num_leaves=8
num_cat=0
split_feature=8 7 0 4 5 2 6
split_gain=7.79522 12.3215 4.29782 2.73865 2.21303 3.1828 2.73613
threshold=0.26147933286996211 -0.71422400731152436 -0.58349065309777981 -0.37862738715289973 -0.66914263138569907 0.4708555089325232 0.23051111727937332
decision_type=2 2 2 2 2 2 2
left_child=1 -1 -2 -4 -3 6 -6
right_child=2 4 3 -5 5 -7 -8
leaf_value=-0.10457790405745171 -0.13620703501077538 -0.0010088673899832131 -0.093117925853652847 0.01296993206277315 0.13907382680160477 0.0073862830637396312 0.042568525954522166
leaf_weight=5.2309331148862865 4.6743884012103072 3.9428323134779957 3.6202513724565497 7.4221965149044982 8.6859129667282122 4.3096973225474349 4.4394746571779242
leaf_count=27 29 23 20 35 54 24 22
internal_value=5.91548e-06 0.0329883 -0.0558337 -0.0218108 0.0666491 0.0819496 0.106432
internal_weight=42.3257 26.6089 15.7168 11.0424 21.3779 17.4351 13.1254
internal_count=234 150 84 55 123 100 76
is_linear=0
shrinkage=0.1


Tree=14
num_leaves=9
num_cat=0
split_feature=6 9 5 3 7 5 2 8
split_gain=6.75315 6.80825 6.32308 3.35425 2.7191 1.17674 1.90389 1.03201
threshold=1.1778586728161158 1.0000000180025095e-35 0.25895774583629455 -0.63889941540659645 -0.33889444273662289 -0.49498324557377471 -0.38222405365978002 0.24746154255456046
decision_type=2 2 2 2 2 2 2 2
left_child=1 2 7 -3 -4 -5 -7 -1
right_child=-2 3 4 5 -6 6 -8 -9
leaf_value=-0.054461043568482241 -0.12002854145382436 -0.017733772087544099 -0.024009914966639966 0.12826174052121306 0.08852988376393528 0.10742420752716531 0.023994201113555182 -0.12313360268558787
leaf_weight=4.0783992186188716 4.206789717078208 4.8390990048646936 4.5393403023481369 3.5675738677382478 4.0734890252351743 5.0442009270191184 5.9755057767033568 4.7221247181296349
leaf_count=22 23 25 21 21 20 29 38 35
internal_value=3.65255e-06 0.0137103 -0.0316958 0.0544113 0.0292165 0.0783443 0.0621838 -0.0913089
internal_weight=41.0465 36.8397 17.4134 19.4264 8.61283 14.5873 11.0197 8.80052
internal_count=234 211 98 113 41 88 67 57
is_linear=0
shrinkage=0.1


Tree=15
num_leaves=8
num_cat=0
split_feature=8 7 0 4 6 5 2
split_gain=5.99371 9.71781 3.77277 2.08115 2.02892 2.40989 0.746921
threshold=0.26147933286996211 -0.71422400731152436 -0.58349065309777981 -0.23502846476911129 -0.65762721603632246 0.25895774583629455 0.32641969996749881
decision_type=2 2 2 2 2 2 2
left_child=1 -1 -2 -4 6 -6 -3
right_child=2 4 3 -5 5 -7 -8
leaf_value=-0.096741961972453383 -0.13156991104969493 0.13076023690081948 -0.075610689350174551 0.015663932767435176 -0.0057219641076430572 0.07940121335167552 0.063113430119210945
leaf_weight=4.8904134631156948 4.140497498214244 4.2047182545065906 4.0284126400947562 6.5757966935634604 6.5362555384635908 6.7712620198726654 2.6678561419248581
leaf_count=27 29 30 24 31 38 36 19
internal_value=-2.5809e-05 0.0297292 -0.0506184 -0.0190102 0.060378 0.0375912 0.104501
internal_weight=39.8152 25.0705 14.7447 10.6042 20.1801 13.3075 6.87257
internal_count=234 150 84 55 123 74 49
is_linear=0
shrinkage=0.1


Tree=16
num_leaves=10
num_cat=0
split_feature=6 3 7 5 6 0 1 1 0
split_gain=5.35866 5.35644 4.65091 5.01397 4.75391 3.66947 4.82231 2.0374 0.691912
threshold=1.1778586728161158 -0.1405407255367464 -0.55101817820331178 0.35525970588542538 -0.53920877159422986 0.36321356790394005 0.41221510038342379 -0.20667429872569415 1.1563843562412004
decision_type=2 2 2 2 2 2 2 2 2
left_child=1 2 7 4 -4 6 -3 -1 -7
right_child=-2 5 3 -5 -6 8 -8 -9 -10
leaf_value=-0.024579520930136784 -0.11222074081482224 -0.072582306011469533 0.050955448925556118 0.090662603663786243 -0.12402050622885862 0.14053516868953869 0.077129851178674935 -0.12753883923560336 0.07616645513103093
leaf_weight=3.4202241599559784 3.8347280547022811 3.7437512502074224 2.9051666855812055 5.1611722633242607 3.3353856205940282 3.7003944814205161 5.0586718916893005 4.3874405324459067 3.0433811172842979
leaf_count=19 23 23 22 28 21 21 27 30 20
internal_value=-3.59097e-05 0.0123419 -0.0229749 0.0177432 -0.0425639 0.0559805 0.0134559 -0.0824365 0.111486
internal_weight=38.5903 34.7556 19.2094 11.4017 6.24055 15.5462 8.80242 7.80766 6.74378
internal_count=234 211 120 71 43 91 50 49 41
is_linear=0
shrinkage=0.1


Tree=17
num_leaves=9
num_cat=0
split_feature=8 7 0 3 2 6 3 2
split_gain=4.62519 7.49092 2.69506 2.93001 1.85654 2.52828 2.68384 0.66103
threshold=0.26147933286996211 -0.71422400731152436 -0.2928490490661988 -0.1405407255367464 -1.0932829293916646 -0.65762721603632246 -0.1405407255367464 0.32641969996749881
decision_type=2 2 2 2 2 2 2 2
left_child=1 -1 -2 -4 -3 7 -7 -6
right_child=2 4 3 -5 5 6 -8 -9
leaf_value=-0.088851846684576075 -0.10414174514253471 0.11890403019985803 -0.083545141868571787 0.034287667752515121 0.12658421553815105 -0.046382837747936709 0.057756665968589964 0.056502710510790748
leaf_weight=4.5133448019623783 5.0490341782569876 3.6198130026459721 3.5007060542702666 5.3129871040582648 2.9192309603095081 4.6227276250720033 5.3258322179317412 2.4972635954618454
leaf_count=27 37 24 23 24 23 24 33 19
internal_value=-7.7705e-05 0.0269471 -0.0458865 -0.0125143 0.0544764 0.0392981 0.00936689 0.0942733
internal_weight=37.3609 23.4982 13.8627 8.81369 18.9849 15.3651 9.94856 5.41649
internal_count=234 150 84 47 123 99 57 42
is_linear=0
shrinkage=0.1


Tree=18
num_leaves=9
num_cat=0
split_feature=6 9 5 3 5 5 5 0
split_gain=4.32061 4.17511 4.65489 2.52312 2.13228 1.1306 1.13027 1.87759
threshold=1.1778586728161158 1.0000000180025095e-35 0.25895774583629455 -0.60097139129107202 0.54168561761506984 -0.66914263138569907 -0.49498324557377471 0.38250952722659148
decision_type=2 2 2 2 2 2 2 2
left_child=1 2 5 -3 -4 -1 -5 -8
right_child=-2 3 4 6 -6 -7 7 -9
leaf_value=-0.12841323460611831 -0.10561807758930408 -0.012742850831809246 0.078504523439547932 0.12155139798073591 -0.025762971468369096 -0.049835102146220764 0.0066394078873450186 0.099091976176940696
leaf_weight=3.1583142131567001 3.5013875365257254 5.242570348083972 3.99057836830616 3.1786373555660239 3.8569411784410477 4.3572366684675199 4.4802024811506289 4.3097343519330025
leaf_count=24 23 31 21 21 20 33 29 32
internal_value=-6.21418e-05 0.011284 -0.0266093 0.0451085 0.0272586 -0.0828566 0.070449 0.0519692
internal_weight=36.0756 32.5742 15.3631 17.2111 7.84752 7.51555 11.9686 8.78994
internal_count=234 211 98 113 41 57 82 61
is_linear=0
shrinkage=0.1


Tree=19
num_leaves=9
num_cat=0
split_feature=8 7 0 4 2 6 3 2
split_gain=3.71484 5.98064 2.30825 2.41034 1.97173 2.21439 2.4745 0.681922
threshold=0.26147933286996211 -0.71422400731152436 -0.2928490490661988 -0.23502846476911129 -1.1433508296932577 -0.65762721603632246 -0.1405407255367464 0.32641969996749881
decision_type=2 2 2 2 2 2 2 2
left_child=1 -1 -2 -4 -3 7 -7 -6
right_child=2 4 3 -5 5 6 -8 -9
leaf_value=-0.082381892072240129 -0.099212472418087672 0.1280411102667724 -0.081909726474529848 0.028717892284848636 0.12311140379388247 -0.044473880215311651 0.055483588843360035 0.04941781652837169
leaf_weight=4.1916337087750462 4.6043685004115096 2.7627668231725719 3.0876969769597045 5.4382794201374045 2.7856736704707172 4.6554988622665414 5.2916009873151717 2.2861940413713455
leaf_count=27 37 19 21 26 25 25 35 19
internal_value=-7.5161e-05 0.0250717 -0.0421579 -0.0113461 0.0504014 0.0361194 0.00870092 0.0898933
internal_weight=35.1037 21.9734 13.1303 8.52598 17.7817 15.019 9.9471 5.07187
internal_count=234 150 84 47 123 104 60 44
is_linear=0
shrinkage=0.1


Tree=20
num_leaves=9
num_cat=0
split_feature=6 9 5 3 5 5 0 5
split_gain=3.47261 3.11473 3.83907 2.16617 1.77482 1.10603 1.70106 1.08634
threshold=1.1778586728161158 1.0000000180025095e-35 0.25895774583629455 -0.60097139129107202 0.54168561761506984 -0.49498324557377471 0.38250952722659148 -0.66914263138569907
decision_type=2 2 2 2 2 2 2 2
left_child=1 2 7 -3 -4 -5 -7 -1
right_child=-2 3 4 5 -6 6 -8 -9
leaf_value=-0.12538655809366114 -0.099497952343456111 -0.014133582914593499 0.072987490842405051 0.11739951424214407 -0.023590414735638152 0.0025854484262016596 0.093596040617644885 -0.04463333131697754
leaf_weight=2.7992582842707634 3.1818987876176825 5.0288667455315617 3.8782687038183212 2.9522166326642063 3.7356785535812378 4.299828656017775 3.9314492046833038 4.1144631430506724
leaf_count=24 23 31 21 21 20 29 32 33
internal_value=-4.97353e-05 0.0102441 -0.0233825 0.0403765 0.0256029 0.0648879 0.0460542 -0.0773291
internal_weight=33.9219 30.74 14.5277 16.2124 7.61395 11.1835 8.23128 6.91372
internal_count=234 211 98 113 41 82 61 57
is_linear=0
shrinkage=0.1


Tree=21
num_leaves=9
num_cat=0
split_feature=5 1 7 0 0 8 2 7
split_gain=3.1994 5.2267 7.25387 2.75158 4.22588 2.5868 1.30919 0.0378699
threshold=1.1943710805123755 -0.51611899828025309 -0.45478548667822177 -0.25425713042089665 0.31711799864996054 -0.6321709009061719 -0.49435891840778917 -0.66273957141054785
decision_type=2 2 2 2 2 2 2 2
left_child=1 5 6 -4 -5 -1 -3 -8
right_child=-2 2 3 4 -6 -7 7 -9
leaf_value=0.15085572019389559 -0.086344797652261662 -0.035883009162055758 -0.028043135589172336 0.12251854665283397 -0.027001140395072416 0.035894678338681901 -0.11555376271267788 -0.13298909312735566
leaf_weight=3.0539633184671402 3.8029970526695243 2.5610096752643585 5.1657535284757641 4.9611523598432488 3.0537843108177185 5.4507845342159289 2.6289551481604576 2.3677302151918438
leaf_count=27 23 16 35 30 25 34 28 16
internal_value=-6.228e-05 0.0111585 -0.015915 0.028869 0.0655498 0.0771759 -0.0940187 -0.123816
internal_weight=33.0461 29.2431 20.7384 13.1807 8.01494 8.50475 7.5577 4.99669
internal_count=234 211 150 90 55 61 60 44
is_linear=0
shrinkage=0.1


Tree=22
num_leaves=9
num_cat=0
split_feature=8 7 1 0 0 2 6 4
split_gain=3.08695 3.09271 4.73353 2.92362 3.38438 2.30374 2.06515 0.102208
threshold=1.421936552841699 -0.3808686526831272 -0.64873815523220679 -0.25425713042089665 0.24699585022506601 -0.55526379998832553 -0.42079032715213704 -0.18673934845493267
decision_type=2 2 2 2 2 2 2 2
left_child=1 2 -1 -3 -5 -4 -6 -7
right_child=-2 3 5 4 6 7 -8 -9
leaf_value=0.057893668425672173 -0.088661908618625052 -0.023303658460371818 3.6601269152035705e-05 0.12911579559602149 0.082656898608811633 -0.095601594717839244 -0.032776118444673943 -0.12384675337224985
leaf_weight=4.2888736948370925 3.5045759603381148 5.1382043287158039 2.8605369776487342 4.9964395388960821 2.8014017120003718 2.2586719468235961 3.4691402763128263 2.9601851366460359
leaf_count=21 25 35 20 34 30 21 24 24
internal_value=-5.05139e-05 0.0107423 -0.0270158 0.039209 0.0677173 -0.0720892 0.0187943 -0.111623
internal_weight=32.278 28.7735 12.3683 16.4052 11.267 8.07939 6.27054 5.21886
internal_count=234 209 86 123 88 65 54 45
is_linear=0
shrinkage=0.1


Tree=23
num_leaves=9
num_cat=0
split_feature=8 7 1 2 0 0 6 0
split_gain=2.61318 2.59719 4.01136 2.59998 2.48739 3.04189 1.75907 0.0164138
threshold=1.421936552841699 -0.3808686526831272 -0.47191261262960182 -0.55526379998832553 -0.25425713042089665 0.24699585022506601 -0.42079032715213704 0.31711799864996054
decision_type=2 2 2 2 2 2 2 2
left_child=1 2 -1 -4 -3 -6 -7 -5
right_child=-2 4 3 7 5 6 -8 -9
leaf_value=0.043623887438716633 -0.083357196975584094 -0.020949542949485464 0.0058715958314064266 -0.11460807116974198 0.12413927094664504 0.078765767597510181 -0.029093066082238446 -0.12686804602352195
leaf_weight=4.9807066470384598 3.3623965233564368 5.1437206789851251 2.6052707657217979 2.5694418437779003 4.6928696408867783 2.6536262370646053 3.5149096027016586 1.8991692215204237
leaf_count=25 25 35 18 29 34 30 24 14
internal_value=-4.96943e-05 0.00993305 -0.025123 -0.0735276 0.0363362 0.0634655 0.0173064 -0.119819
internal_weight=31.4221 28.0597 12.0546 7.07388 16.0051 10.8614 6.16854 4.46861
internal_count=234 209 86 61 123 88 54 43
is_linear=0
shrinkage=0.1


Tree=24
num_leaves=8
num_cat=0
split_feature=5 1 7 4 0 6 2
split_gain=2.57533 3.64964 5.28036 2.32284 2.46072 2.26667 0.0135011
threshold=1.1943710805123755 -0.51611899828025309 -0.58927493878667037 -0.37862738715289973 -0.25425713042089665 -0.77604566047841528 -0.24416384575999231
decision_type=2 2 2 2 2 2 2
left_child=1 5 6 -4 -5 -1 -3
right_child=-2 2 3 4 -6 -7 -8
leaf_value=0.014680476828639223 -0.078736020777637639 -0.12375194190973504 -0.044766520110667028 -0.016237107681469919 0.082432198387382222 0.12085166684943448 -0.11191538162244932
leaf_weight=4.0770444013178349 3.6621780619025222 1.9165730215609076 4.7122285626828733 4.4360968805849597 5.8747851029038261 3.9677485153079086 1.938142903149134
leaf_count=38 23 16 39 30 39 23 26
internal_value=-5.81659e-05 0.0106441 -0.0133911 0.0133988 0.0399813 0.0670449 -0.117801
internal_weight=30.5848 26.9226 18.8778 15.0231 10.3109 8.04479 3.85472
internal_count=234 211 150 108 69 61 42
is_linear=0
shrinkage=0.1


Tree=25
num_leaves=9
num_cat=0
split_feature=4 8 7 3 2 8 9 5
split_gain=2.41189 3.51216 3.29603 2.66622 2.65283 2.50695 1.30831 0.0408873
threshold=1.4998414344121676 1.0000000180025095e-35 -0.71422400731152436 0.15346420631854937 0.4708555089325232 -0.24154429547323061 1.0000000180025095e-35 0.30911458648110351
decision_type=2 2 2 2 2 2 2 2
left_child=1 2 -1 6 5 -4 7 -3
right_child=-2 3 4 -5 -6 -7 -8 -9
leaf_value=-0.088009874063039478 0.075577633523422505 -0.11290190639358189 0.1075925781917535 0.0071701326961441728 -0.027318375669600867 -0.011553062118771815 -0.028418965614576248 -0.131962652306961
leaf_weight=2.3004128150641945 3.6950601972639552 2.925421951338647 6.1009092442691335 4.6644078493118286 3.7924238070845595 2.485447086393834 2.3040300160646439 1.829028435051441
leaf_count=17 22 40 57 26 26 20 14 12
internal_value=-9.24623e-05 -0.0106827 0.021911 -0.0514961 0.0423382 0.0731041 -0.0902641 -0.120235
internal_weight=30.0971 26.4021 14.6792 11.7229 12.3788 8.58636 7.05848 4.75445
internal_count=234 212 120 92 103 77 66 52
is_linear=0
shrinkage=0.1


Tree=26
num_leaves=10
num_cat=0
split_feature=6 9 5 3 7 8 5 5 8
split_gain=2.05484 2.45368 2.70574 1.59904 1.55951 1.34789 0.968034 0.555406 0.491511
threshold=1.1778586728161158 1.0000000180025095e-35 0.25895774583629455 -0.60097139129107202 0.20595364349175974 -0.33771593330213096 -0.66914263138569907 0.52597851362735992 -0.15522745094040394
decision_type=2 2 2 2 2 2 2 2 2
left_child=1 2 6 -3 8 -6 -1 -4 -5
right_child=-2 3 7 4 5 -7 -8 -9 -10
leaf_value=-0.12341049522967561 -0.087742621179895758 -0.013527981517166561 0.051638488863797127 0.063769701471303661 0.065379200274896063 -0.050425369201698815 -0.040657527960710725 -0.0065944952228363905 0.12190407033412161
leaf_weight=2.3568000607192516 2.4520809166133395 4.4593950808048275 2.9557693153619766 3.0239062011241931 2.1341758072376251 1.8997785709798334 3.5321356058120763 3.6732654348015785 2.801930412650103
leaf_count=24 23 31 19 27 27 14 33 22 14
internal_value=-0.000116024 0.00789032 -0.0244491 0.0361618 0.0586355 0.0108414 -0.0737759 0.0193706 0.0917294
internal_weight=29.2892 26.8372 12.518 14.3192 9.85979 4.03395 5.88894 6.62903 5.82584
internal_count=234 211 98 113 82 41 57 41 41
is_linear=0
shrinkage=0.1


Tree=27
num_leaves=9
num_cat=0
split_feature=8 7 1 2 3 1 6 2
split_gain=1.95843 3.26225 2.10461 1.36584 2.43723 1.09919 3.15642 0.154713
threshold=0.26147933286996211 -0.49318923842128537 -0.64873815523220679 0.13984175213534097 -0.1405407255367464 0.36800871473277252 -0.65762721603632246 0.32641969996749881
decision_type=2 2 2 2 2 2 2 2
left_child=1 2 -1 4 -2 6 7 -3
right_child=3 5 -4 -5 -6 -7 -8 -9
leaf_value=0.024182687731158631 -0.1223348085189343 0.11128843743526298 -0.090106812092212801 0.023516765638347099 -0.0076987251822796853 0.089602244286032265 -0.040258352879510982 0.069300198099357585
leaf_weight=3.0024794265627861 3.2514237109571695 2.0189184807240994 3.477240830659869 2.924906412139535 4.3170835934579355 4.5682797357439995 3.5349261276423922 1.5522569641470907
leaf_count=15 35 27 29 25 24 34 27 18
internal_value=-0.000127664 0.0197507 -0.037149 -0.0345182 -0.0569463 0.0513322 0.0267297 0.0930377
internal_weight=28.6475 18.1541 6.47972 10.4934 7.56851 11.6744 7.1061 3.57118
internal_count=234 150 44 84 59 106 72 45
is_linear=0
shrinkage=0.1


Tree=28
num_leaves=8
num_cat=0
split_feature=5 1 7 1 6 6 2
split_gain=2.02614 2.56471 3.98351 2.05569 2.03495 1.86551 0.00696832
threshold=1.1943710805123755 -0.51611899828025309 -0.58927493878667037 1.0311044994925418 0.46734800616355893 -0.77604566047841528 -0.24416384575999231
decision_type=2 2 2 2 2 2 2
left_child=1 5 6 4 -4 -1 -3
right_child=-2 2 3 -5 -6 -7 -8
leaf_value=0.0078819003513543682 -0.0718252439333954 -0.11935707548650787 0.023103864376085803 0.090967460033903186 -0.066530632659691585 0.10803907127313893 -0.10982176220726139
leaf_weight=3.6462891586124897 3.4536261372268191 1.5453758146613839 7.483714550733561 2.6267435643821946 3.8285780847072601 3.7953241281211438 1.5204445235431254
leaf_count=38 23 16 61 17 30 23 26
internal_value=-0.000127985 0.0100009 -0.0114259 0.0112729 -0.0072324 0.0589634 -0.114628
internal_weight=27.9001 24.4465 17.0049 13.939 11.3123 7.44161 3.06582
internal_count=234 211 150 108 91 61 42
is_linear=0
shrinkage=0.1


Tree=29
num_leaves=8
num_cat=0
split_feature=8 2 5 5 5 2 9
split_gain=1.81892 1.94493 4.1312 3.36469 2.36076 1.57758 1.5316
threshold=1.421936552841699 -0.49435891840778917 0.65163534552903757 0.35525970588542538 0.54168561761506984 -0.94028686210320933 1.0000000180025095e-35
decision_type=2 2 2 2 2 2 2
left_child=1 4 3 6 5 -1 -3
right_child=-2 2 -4 -5 -6 -7 -8
leaf_value=-0.057384267509046863 -0.076129987750327185 -0.066334726427220825 -0.10055339394114714 0.11617893781043039 0.10721035345693547 0.054865844635340555 0.018543677597482846
leaf_weight=2.3704912513494492 2.8282125368714324 3.273957394063471 3.9751483947038642 2.6647784337401381 3.6940943263471127 2.6536086611449772 6.0628483891487122
leaf_count=20 25 36 26 16 28 22 61
internal_value=-0.000166265 0.00853356 -0.0121973 0.0170679 0.0465244 0.00190354 -0.011219
internal_weight=27.5231 24.6949 15.9767 12.0016 8.71819 5.0241 9.33681
internal_count=234 209 139 113 70 42 97
is_linear=0
shrinkage=0.1


Tree=30
num_leaves=8
num_cat=0
split_feature=4 4 9 8 2 3 7
split_gain=1.5416 3.03878 3.30865 1.93776 2.24972 1.46762 1.87663
threshold=1.4998414344121676 0.79791341492796575 1.0000000180025095e-35 -0.088991879631854301 -0.76033252778751381 -0.63889941540659645 0.20595364349175974
decision_type=2 2 2 2 2 2 2
left_child=1 2 3 -1 -5 -4 -7
right_child=-2 -3 5 4 -6 6 -8
leaf_value=0.016967861831033125 0.062760148527391271 -0.11866856287175194 -0.025846057237909406 0.005400459627470499 -0.11976788019183858 0.097259213316690823 0.002871307317672862
leaf_weight=3.7677133902907372 3.4052174240350714 2.2904547341167918 2.6512738652527377 2.2639317475259304 3.926296964287765 5.2085679098963684 3.5367225371301174
leaf_count=27 22 20 22 17 46 41 39
internal_value=-0.000146754 -0.00920626 0.00253451 -0.0395752 -0.0739905 0.0393286 0.0590874
internal_weight=27.0502 23.645 21.3545 9.95794 6.19023 11.3966 8.74529
internal_count=234 212 192 90 63 102 80
is_linear=0
shrinkage=0.1


Tree=31
num_leaves=9
num_cat=0
split_feature=5 1 7 6 5 3 8 2
split_gain=1.45535 2.05366 3.32434 2.27275 1.73372 1.78042 1.51137 0.00669867
threshold=1.1943710805123755 -0.51611899828025309 -0.58927493878667037 -1.0720917715836473 0.25895774583629455 -0.38480265209868753 0.26147933286996211 -0.29275149336479406
decision_type=2 2 2 2 2 2 2 2
left_child=1 3 7 -1 5 -4 -6 -3
right_child=-2 2 4 -5 6 -7 -8 -9
leaf_value=-0.029608671628291838 -0.061757834506473722 -0.11896947814913753 -0.091848735085626076 0.092191574986679001 0.10147226732548197 0.01143212908201275 -0.00058894522463928114 -0.10885753800709155
leaf_weight=2.2421820051968098 3.3523833304643622 1.184376657009125 2.4768285490572515 4.8366881906986299 2.8964034765958786 5.1181672997772578 2.9073813036084175 1.4660262633115113
leaf_count=24 23 12 23 37 25 43 17 30
internal_value=-0.000181433 0.00874399 -0.0110462 0.0536122 0.00919564 -0.0222491 0.0503451 -0.113376
internal_weight=26.4804 23.1281 16.0492 7.07887 13.3988 7.595 5.80378 2.6504
internal_count=234 211 150 61 108 66 42 42
is_linear=0
shrinkage=0.1


Tree=32
num_leaves=8
num_cat=0
split_feature=8 2 5 0 5 7 5
split_gain=1.42551 1.5207 3.33084 2.74932 2.60179 1.38545 1.34223
threshold=1.421936552841699 -0.49435891840778917 0.65163534552903757 -0.2928490490661988 0.35525970588542538 -0.40625440344884972 0.41145438430025555
decision_type=2 2 2 2 2 2 2
left_child=1 3 4 -1 5 -3 -5
right_child=-2 2 -4 6 -6 -7 -8
leaf_value=-0.049999339612256222 -0.071301117372799969 -0.061212502452585631 -0.091138168669218922 0.027816168522549495 0.10568482862115208 0.02093927490342962 0.12340815309517708
leaf_weight=2.3210162632167339 2.5426680389791718 3.2588980998843917 3.8816738612949839 2.771287385374313 2.5249037705361834 5.5470727831125233 3.125479880720377
leaf_count=23 25 37 26 21 16 60 26
internal_value=-0.00018505 0.00753249 -0.011192 0.0421947 0.0161956 -0.00946331 0.0784831
internal_weight=25.973 23.4303 15.2125 8.21778 11.3309 8.80597 5.89677
internal_count=234 209 139 70 113 97 47
is_linear=0
shrinkage=0.1


Tree=33
num_leaves=10
num_cat=0
split_feature=9 5 6 2 4 6 3 7 1
split_gain=1.31691 2.36732 2.04635 1.61421 1.58166 1.43496 1.15575 1.62842 0.690738
threshold=1.0000000180025095e-35 -0.66914263138569907 0.46734800616355893 -0.33450535483578753 0.79791341492796575 -0.065534993825858687 -0.63889941540659645 0.20595364349175974 0.41221510038342379
decision_type=2 2 2 2 2 2 2 2 2
left_child=1 -1 5 -4 6 -3 -2 8 -8
right_child=4 2 3 -5 -6 -7 7 -9 -10
leaf_value=-0.12197571326209421 -0.022167295806474172 -0.020869231465109543 -0.11993296669273797 0.0052073141863792603 -0.046734840603664424 0.080139656957788311 0.12890653309905561 0.0031021413645860589 0.054188023580609201
leaf_weight=2.058552874252201 2.4502610899507991 2.548796957358717 2.0713904015719891 2.0518164224922657 2.7428600378334531 3.1380111295729867 2.5474520772695524 3.446203637868166 2.4056058302521706
leaf_count=26 22 22 17 24 20 23 25 39 16
internal_value=-0.000142306 -0.0244806 -0.004022 -0.0576599 0.0211093 0.034868 0.038261 0.0558893 0.0926172
internal_weight=25.461 11.8686 9.81001 4.12321 13.5924 5.68681 10.8495 8.39926 4.95306
internal_count=234 112 86 41 122 45 102 80 41
is_linear=0
shrinkage=0.1


Tree=34
num_leaves=8
num_cat=0
split_feature=8 2 7 2 1 0 4
split_gain=1.19807 1.87278 1.99577 2.36543 3.59688 1.98249 1.30172
threshold=1.421936552841699 1.3396051630357877 -0.3808686526831272 0.059173910462150321 -0.64873815523220679 -0.67876823551922161 -0.37862738715289973
decision_type=2 2 2 2 2 2 2
left_child=1 2 3 4 -1 -4 -7
right_child=-2 -3 5 -5 -6 6 -8
leaf_value=0.11641157315914777 -0.067717327864949564 -0.082691732388803965 -0.041045908652872387 -0.095034379194106761 -0.04341056379742337 0.006482788911087169 0.087941149888281001
leaf_weight=2.2372921258211136 2.3735763989388934 2.111909791827201 2.2399046719074311 2.8259988110512495 3.7997026452794724 2.794509937986736 6.5832603815942905
leaf_count=12 25 17 18 28 42 31 61
internal_value=-0.000133001 0.00696741 0.0162128 -0.019527 0.015819 0.0434783 0.0636671
internal_weight=24.9662 22.5926 20.4807 8.86299 6.03699 11.6177 9.37777
internal_count=234 209 192 82 54 110 92
is_linear=0
shrinkage=0.1


Tree=35
num_leaves=10
num_cat=0
split_feature=9 5 8 6 2 6 6 5 3
split_gain=1.22186 2.08693 1.66213 1.61986 1.39349 1.14632 1.09628 1.07889 1.01149
threshold=1.0000000180025095e-35 -0.66914263138569907 -1.2244857440191652 0.46734800616355893 -0.33450535483578753 0.94102178393193003 -0.065534993825858687 0.65163534552903757 -0.63889941540659645
decision_type=2 2 2 2 2 2 2 2 2
left_child=1 -1 -2 6 -5 7 -3 8 -4
right_child=2 3 5 4 -6 -7 -8 -9 -10
leaf_value=-0.12061788747359857 -0.074480107717447536 -0.019570852750388418 0.0040957188455627803 -0.11471224435973025 0.0049201540689894942 -0.031035995284597856 0.070670862660210568 -0.013668736227406695 0.089654293537262703
leaf_weight=1.8752929633483297 1.6134610436856753 2.4400734920054665 1.8620184436440448 1.9265751838684084 1.9684991501271722 2.2007817514240733 3.0028845407068721 2.1121083050966263 5.3574119172990322
leaf_count=26 15 22 14 17 24 18 23 17 58
internal_value=-0.000100618 -0.0243503 0.0205843 -0.00501758 -0.0542522 0.0338846 0.0302156 0.0491957 0.0675872
internal_weight=24.3591 11.2133 13.1458 9.33803 3.89507 11.5323 5.44296 9.33154 7.21943
internal_count=234 112 122 86 41 107 45 89 72
is_linear=0
shrinkage=0.1


Tree=36
num_leaves=9
num_cat=0
split_feature=8 7 1 7 1 1 6 2
split_gain=1.16532 2.15965 1.43623 1.20922 1.65537 0.921475 2.36771 0.192518
threshold=0.26147933286996211 -0.49318923842128537 -0.64873815523220679 -0.49677825136176418 0.5448342573353776 0.36800871473277252 -0.65762721603632246 0.39503845056844605
decision_type=2 2 2 2 2 2 2 2
left_child=1 2 -1 -2 -5 6 7 -3
right_child=3 5 -4 4 -6 -7 -8 -9
leaf_value=0.016606483850520989 0.02486370762785298 0.10858329434379713 -0.085698665847869435 -0.11005311105112786 -0.0031313195332169242 0.082615558511942133 -0.038740097945700228 0.054813519424794947
leaf_weight=2.7826661765575409 2.7550326641649008 1.6844423562288278 2.707308202981948 2.843774287030099 2.9501038584858179 3.8495681136846542 3.2025028094649342 1.1011929549276827
leaf_count=15 36 30 29 23 25 34 27 15
internal_value=-9.52602e-05 0.0164036 -0.0338439 -0.0296767 -0.0556111 0.0444445 0.0199056 0.0873275
internal_weight=23.8766 15.3277 5.48997 8.54891 5.79388 9.83771 5.98814 2.78564
internal_count=234 150 44 84 48 106 72 45
is_linear=0
shrinkage=0.1


Tree=37
num_leaves=9
num_cat=0
split_feature=1 6 0 2 5 8 2 1
split_gain=1.0789 1.56621 2.21136 2.02418 3.66411 2.09552 1.98124 1.22823
threshold=1.2079300420951469 0.40813878394251252 -0.2928490490661988 0.21817003414899108 0.19612932988545459 0.24746154255456046 1.0642834223327051 -1.0023892404374171
decision_type=2 2 2 2 2 2 2 2
left_child=1 3 -3 5 6 7 -5 -1
right_child=-2 2 -4 4 -6 -7 -8 -9
leaf_value=0.13620364064872051 0.064306620343963172 -0.13343262554879889 -0.0065106418094718942 -0.035599998494877334 -0.12375734219146664 -0.02981975368230317 0.11547082928665267 0.041135064486734839
leaf_weight=2.0982546247541931 2.3415466081351033 2.0869970778003335 4.0109716653823844 1.9171924926340573 2.6071671470999718 2.835142720490694 1.5864764563739298 3.8569958638399866
leaf_count=17 19 28 39 27 17 24 16 47
internal_value=-7.80819e-05 -0.00725739 -0.049949 0.0102131 -0.0339915 0.0409429 0.0328055 0.0746312
internal_weight=23.3407 20.9992 6.09797 14.9012 6.11084 8.79039 3.50367 5.95525
internal_count=234 215 67 148 60 88 43 64
is_linear=0
shrinkage=0.1


Tree=38
num_leaves=10
num_cat=0
split_feature=9 5 6 0 3 0 2 2 3
split_gain=0.994106 1.89725 1.23296 1.13698 2.99639 1.7302 1.58963 1.10533 0.868287
threshold=1.0000000180025095e-35 -0.66914263138569907 0.46734800616355893 1.0000000180025095e-35 -0.43825536492038275 0.59476507977575366 -0.52538015013175732 -0.33450535483578753 -0.035488221580747319
decision_type=2 2 2 2 2 2 2 2 2
left_child=1 -1 8 6 -5 -6 -2 -4 -3
right_child=3 2 7 4 5 -7 -8 -9 -10
leaf_value=-0.11918585183335056 0.12305427516174905 -0.0085973327911652506 -0.1044918338173952 -0.11349765090905282 -0.03934786504343319 0.083956062631053902 0.012816890172434281 0.0052875066829873793 0.074023015665421285
leaf_weight=1.7060104059055454 2.025166030973196 2.9151780530810347 1.7927621398121121 1.9418465700000522 1.9114586412906645 2.8123386669903994 3.6943433918058872 1.8778978306800125 2.256686642765998
leaf_count=26 23 25 17 19 15 31 34 24 20
internal_value=-7.354e-05 -0.0226333 -0.00400515 0.0191408 -0.00892546 0.0340618 0.0518498 -0.0483291 0.0274532
internal_weight=22.9337 10.5485 8.84252 12.3852 6.66564 4.7238 5.71951 3.67066 5.17186
internal_count=234 112 86 122 65 46 57 41 45
is_linear=0
shrinkage=0.1


Tree=39
num_leaves=10
num_cat=0
split_feature=4 9 2 6 0 3 8 0 3
split_gain=0.897514 1.68091 1.4147 2.13681 1.39323 2.32994 1.92417 1.71249 0.527542
threshold=1.5788962888071381 -1.0000000180025095e-35 0.21817003414899108 0.40813878394251252 1.0000000180025095e-35 -0.43825536492038275 -0.5997852565674725 -0.62519613475338531 -0.22117684473555685
decision_type=2 2 2 2 2 2 2 2 2
left_child=1 2 3 8 7 -6 -7 -3 -1
right_child=-2 4 -4 -5 5 6 -8 -9 -10
leaf_value=-0.0051769875948945556 0.059389760428854514 -0.0025312421078865417 -0.11492236514389642 -0.082966536732606649 -0.10427105718897506 0.106998409132566 -0.029863763861171851 0.11548856306826427 0.06629406159204318
leaf_weight=2.2163644712418318 2.2810138724744311 2.3598840199410915 1.9208792531862853 2.97069644741714 1.9043553303927208 1.8056424818933035 2.3829263411462254 2.5666944086551684 1.9338775686919705
leaf_count=22 18 20 27 37 19 25 18 30 18
internal_value=-4.93242e-05 -0.00680767 -0.0387632 -0.0182192 0.0194128 -0.0125607 0.0291359 0.0589558 0.0281262
internal_weight=22.3423 20.0613 9.04182 7.12094 11.0195 6.09292 4.18857 4.92658 4.15024
internal_count=234 216 104 77 112 62 43 50 40
is_linear=0
shrinkage=0.1


Tree=40
num_leaves=8
num_cat=0
split_feature=1 6 3 0 1 8 3
split_gain=0.907563 1.49935 1.41389 3.54878 1.91048 1.73517 1.11283
threshold=1.2079300420951469 1.059440228374023 -0.1405407255367464 -0.25425713042089665 -1.5107626754199066 -0.74768444913101262 0.93972455183657255
decision_type=2 2 2 2 2 2 2
left_child=1 2 4 -4 -1 -6 -5
right_child=-2 -3 3 6 5 -7 -8
leaf_value=0.06292665399715007 0.060571596049836696 -0.089372548839687996 -0.082306764605783594 0.093769800370535283 -0.14212936375590449 -0.02289707604616513 0.0028837375896355812
leaf_weight=1.9107224792242101 2.219275500625371 1.9812107458710659 2.0876622758805752 4.6483027301728743 1.5791157670319123 5.3751588142476932 1.897002976387739
leaf_count=12 19 26 17 46 13 80 21
internal_value=-1.87761e-05 -0.00692188 0.00241362 0.0312189 -0.0256378 -0.0499713 0.0674286
internal_weight=21.6985 19.4792 17.498 8.63297 8.865 6.95427 6.54531
internal_count=234 215 189 84 105 93 67
is_linear=0
shrinkage=0.1


Tree=41
num_leaves=8
num_cat=0
split_feature=8 7 2 0 6 7 1
split_gain=0.838189 1.76883 1.01343 1.24686 1.34127 0.894052 1.36893
threshold=0.26147933286996211 -0.71422400731152436 -1.0932829293916646 0.68268219920849849 -0.53920877159422986 -0.49677825136176418 0.5448342573353776
decision_type=2 2 2 2 2 2 2
left_child=1 -1 -3 4 -4 -2 -7
right_child=5 2 3 -5 -6 6 -8
leaf_value=-0.061678855774792721 0.022551900420230919 0.10458114651378042 0.051542686741479431 0.080856812433940495 -0.037693388879046455 -0.10310623168879018 -0.00028329153795426211
leaf_weight=2.4662984292954215 2.5144363078288734 1.6374522857367999 2.8049335274845353 2.4464699421077967 4.2161343507468692 2.5123322382569304 2.6717678001150489
leaf_count=27 36 24 32 34 33 23 25
internal_value=-2.31939e-05 0.0149282 0.0319418 0.0193786 -0.00204336 -0.0263802 -0.0501136
internal_weight=21.2698 13.5713 11.105 9.46754 7.02107 7.69854 5.1841
internal_count=234 150 123 99 65 84 48
is_linear=0
shrinkage=0.1


Tree=42
num_leaves=8
num_cat=0
split_feature=5 4 6 0 3 4 1
split_gain=0.874857 1.20239 1.72168 1.45108 1.36346 1.42735 0.856049
threshold=1.1943710805123755 1.4998414344121676 0.40813878394251252 -0.2928490490661988 0.082538460778434256 -0.23502846476911129 -0.25088068437634542
decision_type=2 2 2 2 2 2 2
left_child=1 2 4 -4 5 -1 -6
right_child=-2 -3 3 -5 6 -7 -8
leaf_value=0.031585790663500111 -0.053845331756286266 0.072360781948565392 -0.12620108994821086 -0.01178107336176896 0.01729111172674112 -0.060791320769999324 0.11156601086458573
leaf_weight=4.0262376526370671 2.6347465030848971 2.4902643505483857 1.7031646254472432 3.1737964218482366 1.8120807167142632 2.861343300901356 2.0560144986957312
leaf_count=49 23 20 28 35 21 33 25
internal_value=-2.98672e-06 0.00782473 -0.0024558 -0.0517396 0.019891 -0.00679091 0.0674012
internal_weight=20.7576 18.1229 15.6326 4.87696 10.7557 6.88758 3.8681
internal_count=234 211 191 63 128 82 46
is_linear=0
shrinkage=0.1


Tree=43
num_leaves=9
num_cat=0
split_feature=8 2 7 1 2 2 8 6
split_gain=0.743549 1.30465 1.22774 1.73824 1.60527 1.07629 1.48772 0.7476
threshold=1.421936552841699 1.3396051630357877 -0.3808686526831272 -0.64873815523220679 -0.55526379998832553 0.097595921887091625 -0.24154429547323061 0.6449756728266981
decision_type=2 2 2 2 2 2 2 2
left_child=1 2 3 -1 -5 6 -4 -7
right_child=-2 -3 5 4 -6 7 -8 -9
leaf_value=0.040046610102996122 -0.059468488202938069 -0.073105299757570366 0.093325432706916109 0.013096898827126835 -0.11238620000192703 0.040954358807189582 -0.023409331451833056 0.12892505539623642
leaf_weight=3.1847812831401825 1.9060512576252211 1.8681821431964625 1.5289013795554693 1.7955875815823672 2.3586319517344299 2.2425090149044995 3.8182579465210398 1.6971338000148533
leaf_count=20 25 17 30 20 42 33 36 11
internal_value=3.64516e-08 0.00612906 0.0150323 -0.0155364 -0.0581484 0.0391896 0.00996838 0.0788507
internal_weight=20.4 18.494 16.6258 7.339 4.15422 9.2868 5.34716 3.93964
internal_count=234 209 192 82 62 110 66 44
is_linear=0
shrinkage=0.1


Tree=44
num_leaves=8
num_cat=0
split_feature=5 1 7 4 6 0 2
split_gain=0.775017 1.10936 1.99819 1.49114 1.14115 0.974013 0.00334437
threshold=1.1943710805123755 -0.51611899828025309 -0.58927493878667037 -0.37862738715289973 -1.0128825493626008 -0.25425713042089665 -0.29275149336479406
decision_type=2 2 2 2 2 2 2
left_child=1 4 6 -4 -1 -5 -3
right_child=-2 2 3 5 -6 -7 -8
leaf_value=-0.018385909010610008 -0.051398851591447497 -0.11468814676977138 -0.05279353481155509 -0.0096411139324622894 0.076704775948652659 0.064914036697361649 -0.10581607823949596
leaf_weight=1.9184116329997776 2.5568202007561913 0.82846341375261545 2.9415080063045052 3.1466323183849481 3.6884833928197684 3.9544908497482432 0.87217273097485548
leaf_count=28 23 12 39 30 33 39 30
internal_value=1.21317e-07 0.00757457 -0.0098978 0.00707706 0.0441693 0.0318773 -0.110138
internal_weight=19.907 17.3502 11.7433 10.0426 5.6069 7.10112 1.70064
internal_count=234 211 150 108 61 69 42
is_linear=0
shrinkage=0.1


Tree=45
num_leaves=9
num_cat=0
split_feature=9 5 5 3 1 1 0 3
split_gain=0.754664 1.54019 1.21507 1.29908 1.22717 1.04246 1.64394 2.07264
threshold=1.0000000180025095e-35 -0.66914263138569907 0.19612932988545459 -0.1405407255367464 0.41221510038342379 -1.5107626754199066 -0.25425713042089665 0.11694013204475658
decision_type=2 2 2 2 2 2 2 2
left_child=1 -1 3 -2 -4 -3 -7 -8
right_child=2 5 4 -5 -6 6 7 -9
leaf_value=-0.11682910269673843 0.0069875808409089529 0.06929710618732271 -0.046434090143693763 0.11054401775631018 0.050305716057123154 -0.097571212172643695 -0.06476040550665324 0.080163787963153266
leaf_weight=1.4237948036752639 2.6280653495341539 1.5625182688236234 3.7953854221850634 2.2472230195999146 2.0034593492746353 1.9561560507863753 1.8070953525602824 2.1740535963326693
leaf_count=26 35 8 36 31 20 29 26 23
internal_value=-1.7552e-05 -0.0214795 0.0179247 0.054721 -0.0130112 -0.003378 -0.0225039 0.0143808
internal_weight=19.5978 8.92362 10.6741 4.87529 5.79884 7.49982 5.9373 3.98115
internal_count=234 112 122 66 56 86 78 49
is_linear=0
shrinkage=0.1


Tree=46
num_leaves=9
num_cat=0
split_feature=1 6 4 9 3 0 5 3
split_gain=0.665748 1.11292 1.04902 1.35158 1.20314 1.05412 0.905952 0.779251
threshold=1.2079300420951469 1.059440228374023 0.070222638780589 1.0000000180025095e-35 -0.49418637094287188 0.31711799864996054 -0.036567583362581459 -0.43825536492038275
decision_type=2 2 2 2 2 2 2 2
left_child=1 2 3 6 -4 -6 -1 -5
right_child=-2 -3 4 7 5 -7 -8 -9
leaf_value=-0.071959560281243715 0.055481132625466945 -0.082583763354557874 -0.10143800584170432 0.01871605906015409 -0.043866434522023892 0.052253130567556774 0.020632862465239054 0.10074425036626498
leaf_weight=1.7309074224904177 1.9413850381970394 1.7207968523725856 1.6841466445475815 2.2091428525745891 2.6723408550024024 1.9910183418542144 2.7129301493987494 2.434220985509453
leaf_count=28 19 26 23 26 27 21 29 35
internal_value=-2.22469e-05 -0.00630323 0.00220119 0.0239898 -0.0289918 -0.00282825 -0.0154326 0.0617182
internal_weight=19.0969 17.1555 15.4347 9.0872 6.34751 4.66336 4.44384 4.64336
internal_count=234 215 189 118 71 48 57 61
is_linear=0
shrinkage=0.1


Tree=47
num_leaves=6
num_cat=0
split_feature=8 2 4 7 8
split_gain=0.679535 1.63638 0.975931 1.54551 0.901747
threshold=1.421936552841699 1.5521988848919734 1.5788962888071381 -0.71422400731152436 0.26147933286996211
decision_type=2 2 2 2 2
left_child=1 2 3 -1 -5
right_child=-2 -3 -4 4 -6
leaf_value=-0.079154622307264555 -0.060523342936546348 -0.090452688731767386 0.088693482948170477 0.037044027148802249 -0.024252286812103233
leaf_weight=1.8005797681398714 1.6884908815845836 1.5953675489872683 1.6465571140870441 8.7240806110203284 3.3108551525510839
leaf_count=35 25 14 16 109 35
internal_value=-5.56609e-06 0.00597798 0.0159148 0.00725344 0.0201812
internal_weight=18.7659 17.0774 15.4821 13.8355 12.0349
internal_count=234 209 195 179 144
is_linear=0
shrinkage=0.1


Tree=48
num_leaves=9
num_cat=0
split_feature=9 5 6 7 5 3 2 0
split_gain=0.572914 1.04712 1.35232 1.00014 0.875173 1.08632 0.972232 0.790148
threshold=1.0000000180025095e-35 -0.036567583362581459 0.05288345061623409 -0.17790874879612403 0.19612932988545459 -0.035488221580747319 -0.49435891840778917 0.07305121900484475
decision_type=2 2 2 2 2 2 2 2
left_child=1 7 -3 -4 5 -2 -6 -1
right_child=4 2 3 -5 6 -7 -8 -9
leaf_value=-0.11538503922999453 0.012450770459072377 0.064236677461847733 -0.091595403449581364 0.018836927308820129 0.040845788319122403 0.11450566645377923 -0.044213744834201069 -0.0048116556320618314
leaf_weight=1.6052159871906044 2.9690076261758804 2.2837314363569021 1.628486327826977 1.6521010715514419 2.2219860311597586 1.6078478982672093 3.3998712208122015 1.0817882660776375
leaf_count=37 38 24 23 17 27 28 29 11
internal_value=-1.37277e-05 -0.0196048 0.00515031 -0.0359818 0.0158365 0.0483026 -0.0105948 -0.0708682
internal_weight=18.45 8.25132 5.56432 3.28059 10.1987 4.57686 5.62186 2.687
internal_count=234 112 64 40 122 66 56 48
is_linear=0
shrinkage=0.1


Tree=49
num_leaves=8
num_cat=0
split_feature=8 2 7 2 1 4 2
split_gain=0.593433 1.28915 0.909053 1.20323 1.81072 1.06619 0.881655
threshold=1.421936552841699 1.5521988848919734 -0.3808686526831272 0.059173910462150321 -0.64873815523220679 -0.37862738715289973 0.62263320510459741
decision_type=2 2 2 2 2 2 2
left_child=1 2 3 4 -1 -4 -7
right_child=-2 -3 5 -5 -6 6 -8
leaf_value=0.096088388071727274 -0.058518630418632304 -0.08105146739819713 -0.023649576398135697 -0.073594189767496765 -0.034823346222180834 0.035842372063226095 0.12292997552488577
leaf_weight=1.7498822584748266 1.5822387831285585 1.5545198675245036 2.1615985371172455 2.1911979559808969 2.666648002574223 4.5587296904996029 1.5603802204132078
leaf_count=12 25 14 34 30 42 62 15
internal_value=-2.61825e-05 0.00560231 0.0146499 -0.0130117 0.0170455 0.036723 0.0580498
internal_weight=18.0252 16.443 14.8884 6.60773 4.41653 8.28071 6.11911
internal_count=234 209 195 84 54 111 77
is_linear=0
shrinkage=0.1


Tree=50
num_leaves=8
num_cat=0
split_feature=5 1 7 8 4 0 8
split_gain=0.556747 0.800845 1.5302 1.32772 1.18621 0.682888 0.00347724
threshold=1.1943710805123755 -0.51611899828025309 -0.58927493878667037 -0.6321709009061719 -0.37862738715289973 -0.25425713042089665 -0.47657359620519352
decision_type=2 2 2 2 2 2 2
left_child=1 3 6 -1 -4 -6 -3
right_child=-2 2 4 -5 5 -7 -8
leaf_value=0.11697264644030159 -0.045187893878309175 -0.11475375090803951 -0.050928298417467613 0.0053992512049847253 -0.0069643981287364452 0.05887581968622229 -0.10443403909342384
leaf_weight=1.5424966728314755 2.3610980603843919 0.56907296273857355 2.6045800987631074 3.4567008744925269 2.8689048588275901 3.4937028400599957 0.76603309600614078
leaf_count=27 23 10 39 34 30 39 32
internal_value=9.33435e-06 0.0069835 -0.00895292 0.0398251 0.00591797 0.0291884 -0.108833
internal_weight=17.6626 15.3015 10.3023 4.9992 8.96719 6.36261 1.33511
internal_count=234 211 150 61 108 69 42
is_linear=0
shrinkage=0.1


Tree=51
num_leaves=10
num_cat=0
split_feature=9 4 2 8 2 0 3 2 0
split_gain=0.601354 0.867721 0.962653 1.11709 1.04866 0.86502 1.26471 0.939842 0.890108
threshold=1.0000000180025095e-35 1.1667855362186714 0.21817003414899108 -0.088991879631854301 -0.76033252778751381 1.0000000180025095e-35 -0.27207859443908483 -0.49435891840778917 0.55617316113045157
decision_type=2 2 2 2 2 2 2 2 2
left_child=1 2 3 -1 -5 7 -7 -2 -8
right_child=5 -3 -4 4 -6 6 8 -9 -10
leaf_value=0.043647951982361891 0.11062178478831575 0.048570257320997186 -0.11183762256913872 0.0066667768780552979 -0.11330052194604688 -0.079812722974127948 -0.033032981748561445 0.015062994530507226 0.069365839229300702
leaf_weight=1.8817511145025485 1.5817157458513973 1.4487426560372112 1.3562875399366019 1.4135148227214807 1.5038002585060914 1.7765640169382102 1.5219823596999043 2.9466111231595278 1.9195048501715062
leaf_count=22 24 13 26 19 32 23 13 33 29
internal_value=1.70421e-05 -0.0210599 -0.0374482 -0.0164247 -0.0551733 0.0164612 -0.0112916 0.0484411 0.0240804
internal_weight=17.3505 7.6041 6.15535 4.79907 2.91732 9.74638 5.21805 4.52833 3.44149
internal_count=234 112 99 73 51 122 65 57 42
is_linear=0
shrinkage=0.1


Tree=52
num_leaves=9
num_cat=0
split_feature=9 5 3 3 5 6 0 2
split_gain=0.50855 0.844299 0.920486 0.920106 0.762077 0.967037 0.693202 0.0176095
threshold=1.0000000180025095e-35 0.19612932988545459 0.10644529685256286 -0.035488221580747319 -0.036567583362581459 0.05288345061623409 0.07305121900484475 -0.46880282687756863
decision_type=2 2 2 2 2 2 2 2
left_child=4 3 -3 -2 6 -6 -1 -7
right_child=1 2 -4 -5 5 7 -8 -9
leaf_value=-0.11331696468192597 0.015367396695616471 0.020587630536107734 -0.065671028681829779 0.11411295735224627 0.054561400611605526 -0.042491226714479684 -0.0034214031250150074 -0.026985798423787111
leaf_weight=1.3542233912739905 2.806968493387104 3.3429605588316917 1.9638924300670622 1.421507486142217 2.0730774560943255 1.4552439497783782 0.99623523466289032 1.4746890999376772
leaf_count=37 38 38 18 28 24 19 11 21
internal_value=-1.09385e-05 0.0152277 -0.0113339 0.0485632 -0.019771 0.00229447 -0.066738 -0.0346871
internal_weight=16.8888 9.53533 5.30685 4.22848 7.35347 5.00301 2.35046 2.92993
internal_count=234 122 56 66 112 64 48 40
is_linear=0
shrinkage=0.1


Tree=53
num_leaves=9
num_cat=0
split_feature=1 6 4 3 9 0 3 1
split_gain=0.542361 0.84009 0.942424 0.896647 0.880518 0.702818 0.582197 0.573775
threshold=1.2079300420951469 1.059440228374023 0.070222638780589 -0.49418637094287188 1.0000000180025095e-35 -0.031071444844888461 -0.43825536492038275 0.32380232908212125
decision_type=2 2 2 2 2 2 2 2
left_child=1 2 4 -4 7 -5 -6 -1
right_child=-2 -3 3 5 6 -7 -8 -9
leaf_value=-0.040430025069289298 0.054654116435187999 -0.076184163307689415 -0.096626489913045371 -0.056902626212627885 0.01956109185395203 0.026951959516340503 0.095465302211965516 0.040836231120908541
leaf_weight=2.3524737402331106 1.6365105230361212 1.5302459229715157 1.4566875807940958 1.6336951931007204 2.0513635203242298 2.5748211406171322 1.9915372361429038 1.3775519288610665
leaf_count=33 19 26 23 21 26 27 35 24
internal_value=-3.91916e-06 -0.00597975 0.00201467 -0.0290051 0.024623 -0.00559938 0.0569516 -0.0104172
internal_weight=16.6049 14.9684 13.4381 5.6652 7.77293 4.20852 4.0429 3.73003
internal_count=234 215 189 71 118 48 61 57
is_linear=0
shrinkage=0.1


Tree=54
num_leaves=8
num_cat=0
split_feature=8 7 2 2 8 5 6
split_gain=0.508486 0.965208 0.849026 0.979217 0.712476 1.09256 0.366847
threshold=0.24746154255456046 0.23274570091660599 0.13984175213534097 -0.52538015013175732 -0.21651695680371705 0.37056681113533779 -0.42079032715213704
decision_type=2 2 2 2 2 2 2
left_child=1 4 3 -2 5 -1 -3
right_child=2 6 -4 -5 -6 -7 -8
leaf_value=-0.075312132620157415 -0.0072440968452229318 0.10827401320804333 0.032140361361520979 -0.10541354101365968 0.042561941063722797 0.016773652437996861 0.03472160397378736
leaf_weight=2.3909609466791162 2.4400978796184059 1.0965995313599708 1.9245481188409028 1.7410735159646713 2.1694453386589894 2.7941161692142487 1.7768024355173109
leaf_count=31 30 28 27 31 32 32 23
internal_value=1.27513e-05 0.0136452 -0.0228234 -0.0481226 -0.00555645 -0.0256893 0.062792
internal_weight=16.3336 10.2279 6.10572 4.18117 7.35452 5.18508 2.8734
internal_count=234 146 88 61 95 63 51
is_linear=0
shrinkage=0.1


Tree=55
num_leaves=6
num_cat=0
split_feature=3 4 1 3 0
split_gain=0.475992 0.826697 1.47813 1.75479 0.967193
threshold=1.2998305171040117 1.4998414344121676 0.94269172819123914 0.1712811758024804 1.0000000180025095e-35
decision_type=2 2 2 2 2
left_child=1 2 3 4 -1
right_child=-2 -3 -4 -5 -6
leaf_value=0.019171368532923894 -0.046392673700320373 0.071053628743213595 -0.098763160163724051 0.090168759562035461 -0.047802431250988056
leaf_weight=4.919304958777504 1.943255160935222 1.7343474058434356 1.4172391709871579 2.175180018413811 3.839025279507041
leaf_count=79 24 19 24 34 54
internal_value=2.25882e-06 0.00640315 -0.00267536 0.00977987 -0.0101852
internal_weight=16.0284 14.0851 12.3507 10.9335 8.75833
internal_count=234 210 191 167 133
is_linear=0
shrinkage=0.1


Tree=56
num_leaves=11
num_cat=0
split_feature=8 7 4 7 3 6 1 7 1 4
split_gain=0.459642 0.905016 1.12135 0.740666 1.12488 0.73291 1.31255 0.55895 0.0818285 8.12051e-05
threshold=0.24746154255456046 -0.49318923842128537 -0.23502846476911129 0.13559758955951104 -0.1405407255367464 -0.65762721603632246 0.41221510038342379 -0.19666282823797851 -0.56032538393090425 -0.10543033569852465
decision_type=2 2 2 2 2 2 2 2 2 2
left_child=1 2 -1 4 7 8 -7 9 -3 -2
right_child=3 5 -4 -5 -6 6 -8 -9 -10 -11
leaf_value=0.030729772973558469 -0.10448629004310112 0.10675557031298651 -0.079372897301813725 -0.070306363738499675 0.052291358050805897 -0.038805130140703165 0.070426936261064971 0.013426530483980834 0.063688787826415044 -0.1062988347277561
leaf_weight=1.7933761603198948 0.49343493208289169 1.0971857574768362 1.9103542687371362 2.0702029820531607 2.1216362733393916 2.2662051254883409 2.1377573935315013 0.66030457615852356 0.73789488058537145 0.49527140753343701
leaf_count=21 21 30 22 19 22 26 31 7 16 19
internal_value=1.75985e-05 0.0130971 -0.0260603 -0.0222474 0.00413852 0.0363424 0.0142179 -0.0578155 0.0894382 -0.105394
internal_weight=15.7836 9.94277 3.70373 5.84085 3.77065 6.23904 4.40396 1.64901 1.83508 0.988706
internal_count=234 146 43 88 69 103 57 47 46 40
is_linear=0
shrinkage=0.1


Tree=57
num_leaves=6
num_cat=0
split_feature=2 2 5 1 7
split_gain=0.470516 0.599384 0.82205 1.09583 1.61592
threshold=-1.1433508296932577 -0.91874483985564492 0.65163534552903757 -1.7096914108478376 -0.40625440344884972
decision_type=2 2 2 2 2
left_child=-1 -2 3 -3 -5
right_child=1 2 -4 4 -6
leaf_value=0.055950462758370914 -0.059909380044759368 0.10974758339395672 -0.038677135581867125 -0.060150698142533876 0.037610316725575015
leaf_weight=1.3700337428599603 1.7662460161373008 1.1497147660702438 3.484003401361405 2.5370915615931118 5.0686644581146583
leaf_count=24 22 9 36 55 88
internal_value=1.90371e-05 -0.00545215 0.00240643 0.0187545 0.00499967
internal_weight=15.3758 14.0057 12.2395 8.75547 7.60576
internal_count=234 210 188 152 143
is_linear=0
shrinkage=0.1


Tree=58
num_leaves=11
num_cat=0
split_feature=9 4 2 2 3 4 0 0 0 3
split_gain=0.449381 0.736253 0.77532 1.36385 1.19479 0.659974 0.483845 1.69621 0.964191 0.544959
threshold=1.0000000180025095e-35 1.1667855362186714 0.21817003414899108 -0.19134925836381014 0.11694013204475658 0.79791341492796575 -1.0000000180025095e-35 0.38250952722659148 -0.62519613475338531 1.0000000180025095e-35
decision_type=2 2 2 2 2 2 2 2 2 2
left_child=1 2 3 4 -1 6 8 -8 -2 -9
right_child=5 -3 -4 -5 -6 -7 7 9 -10 -11
leaf_value=-0.11075345223115474 -0.0034520666726497529 0.04665530478970259 -0.10886716803399332 0.079120709192029459 0.014858481812784957 -0.038028643081371223 -0.084628218892425153 0.0071315473982296804 0.10835740215340098 0.10608809291249871
leaf_weight=1.5838434747420249 1.3912192136049273 1.3422988383099435 1.151036500232294 1.1035297710914158 1.4509180746972559 1.8267866903915999 1.3329076133668434 1.0828472217544916 1.730791339650749 1.144931186456233
leaf_count=33 16 13 26 19 21 20 12 21 30 23
internal_value=2.80852e-05 -0.019487 -0.0362722 -0.0160805 -0.0506984 0.0152366 0.0297972 0.00460146 0.0585333 0.0579887
internal_weight=15.1411 6.63163 5.28933 4.13829 3.03476 8.50948 6.6827 3.56069 3.12201 2.22778
internal_count=234 112 99 73 54 122 102 56 46 44
is_linear=0
shrinkage=0.1


Tree=59
num_leaves=8
num_cat=0
split_feature=1 3 6 1 0 3 1
split_gain=0.402636 0.614148 0.632298 1.09098 1.16453 0.707518 0.718548
threshold=1.2079300420951469 1.2998305171040117 0.05288345061623409 0.41221510038342379 -0.23322723514824897 0.082538460778434256 -0.64873815523220679
decision_type=2 2 2 2 2 2 2
left_child=1 2 5 -4 -5 6 -1
right_child=-2 -3 3 4 -6 -7 -8
leaf_value=0.043584370487410783 0.049737573336328916 -0.064093517288706381 -0.086701493144343819 -0.067047745214896967 0.055456736120076823 0.08752233823237518 -0.031225390236592467
leaf_weight=2.5713430242612931 1.4660129239782698 1.5754201924428333 1.793216773192398 1.2327937507070603 2.0940859233960509 1.3526141359470782 2.5643608483951548
leaf_count=29 19 20 25 27 36 26 52
internal_value=2.20761e-05 -0.00550618 0.00244493 -0.0238276 0.010062 0.0231772 0.00623034
internal_weight=14.6498 13.1838 11.6084 5.1201 3.32688 6.48832 5.1357
internal_count=234 215 195 88 63 107 81
is_linear=0
shrinkage=0.1


Tree=60
num_leaves=9
num_cat=0
split_feature=9 5 6 0 0 0 1 8
split_gain=0.421509 0.686628 0.668277 0.600591 0.871643 0.648843 0.469346 0.33875
threshold=1.0000000180025095e-35 -0.036567583362581459 0.05288345061623409 -1.0000000180025095e-35 0.68268219920849849 -0.70288818467253544 0.76586618558863406 0.53786752540751837
decision_type=2 2 2 2 2 2 2 2
left_child=1 6 -3 5 -5 -2 -1 -4
right_child=3 2 7 4 -6 -7 -8 -9
leaf_value=-0.11189980141144468 0.0016911383906144288 0.049762645121901677 -0.068549332206370495 -0.055572419421400537 0.033589682050559337 0.08452097185033608 -0.013920742405548123 0.0058650244989946823
leaf_weight=1.0970861251698805 1.8458484159782531 1.7796806441619981 1.2049348822329196 2.1563670784235009 2.2305786819197237 1.9393697809427966 0.88193481205962587 1.2425956227816639
leaf_count=26 21 24 19 26 39 36 22 21
internal_value=2.36451e-05 -0.0196236 0.00313492 0.0149445 -0.0102372 0.0441293 -0.0682362 -0.0307696
internal_weight=14.3784 6.20623 4.22721 8.17216 4.38695 3.78522 1.97902 2.44753
internal_count=234 112 64 122 65 57 48 40
is_linear=0
shrinkage=0.1


Tree=61
num_leaves=6
num_cat=0
split_feature=0 5 0 6 6
split_gain=0.376465 0.72505 0.658658 0.789987 1.0872
threshold=1.7221009347983716 1.1943710805123755 0.68268219920849849 -1.0128825493626008 -0.53920877159422986
decision_type=2 2 2 2 2
left_child=1 2 3 -1 -5
right_child=-2 -3 -4 4 -6
leaf_value=-0.058379768380381149 -0.053140915252575541 -0.055821934032149072 0.08383778052077577 0.096708358109044601 0.0016091309922092963
leaf_weight=1.6080851918086363 1.2176284352317459 1.6997753148898471 1.2135217115283001 1.4552515675313724 6.9115475239232245
leaf_count=26 13 20 35 23 117
internal_value=8.88045e-06 0.00503028 0.0142751 0.00581229 0.0181499
internal_weight=14.1058 12.8882 11.1884 9.97488 8.3668
internal_count=234 221 201 166 140
is_linear=0
shrinkage=0.1


Tree=62
num_leaves=9
num_cat=0
split_feature=8 7 4 6 1 2 4 8
split_gain=0.356403 0.721121 0.805547 0.63592 0.905276 0.632584 0.819166 0.0721144
threshold=0.24746154255456046 -0.49318923842128537 -0.23502846476911129 -0.65762721603632246 0.41221510038342379 0.13984175213534097 -0.23502846476911129 -0.61859562552281744
decision_type=2 2 2 2 2 2 2 2
left_child=1 2 -1 7 -5 6 -2 -3
right_child=5 3 -4 4 -6 -7 -8 -9
leaf_value=0.026327348042148938 -0.11409449330956166 0.063089446394684057 -0.073245088396357946 -0.031864640306807988 0.064178724357425568 0.029881590847533696 -0.011223177432573062 0.10714939563185513
leaf_weight=1.579023589147255 1.1481272699311378 0.62901953095570207 1.6736472975462664 2.0888347262516622 1.8511113356798885 1.6765869846567509 2.3759739757515499 0.90730316378176101
leaf_count=21 26 24 22 26 31 27 35 22
internal_value=4.06792e-05 0.0123874 -0.0249072 0.0345387 0.0132596 -0.0206822 -0.0447379 0.0891098
internal_weight=13.9296 8.72894 3.25267 5.47627 3.93995 5.20069 3.5241 1.53632
internal_count=234 146 43 103 57 88 61 46
is_linear=0
shrinkage=0.1


Tree=63
num_leaves=10
num_cat=0
split_feature=9 5 6 7 4 4 6 3 7
split_gain=0.351275 0.647472 0.569996 0.604261 0.506695 0.482129 0.363971 0.820631 0.525638
threshold=1.0000000180025095e-35 -0.036567583362581459 0.05288345061623409 -0.081058426296179459 0.79791341492796575 0.048006298617490985 0.94102178393193003 -0.63889941540659645 0.31614198707358965
decision_type=2 2 2 2 2 2 2 2 2
left_child=1 5 -3 -4 6 -1 7 -2 -9
right_child=4 2 3 -5 -6 -7 -8 8 -10
leaf_value=-0.10924794760821864 -0.030224429272186534 0.048215129038160935 -0.074581849368550709 0.026803111588614304 -0.033800898607214212 -0.0060663250879504395 -0.021756062969361199 0.096708660123735884 0.018545675256651774
leaf_weight=1.1034910258604211 1.2291803099215024 1.7060127095319328 1.2693017739802597 1.0950051769614222 1.7115017790347336 0.76804827479645599 1.1823900286108253 2.0923213316127667 1.4612295632250605
leaf_count=32 17 24 26 14 20 16 16 33 36
internal_value=3.26243e-05 -0.0182224 0.00416142 -0.0276264 0.0141624 -0.0669039 0.0279239 0.0402059 0.0645678
internal_weight=13.6185 5.94186 4.07032 2.36431 7.67662 1.87154 5.96512 4.78273 3.55355
internal_count=234 112 64 40 122 48 102 86 69
is_linear=0
shrinkage=0.1


Tree=64
num_leaves=9
num_cat=0
split_feature=1 6 4 9 0 2 3 5
split_gain=0.348006 0.510219 0.626995 0.537988 0.475303 0.781311 0.441659 0.417305
threshold=1.2079300420951469 1.059440228374023 0.070222638780589 1.0000000180025095e-35 -0.25425713042089665 -0.24416384575999231 -0.43825536492038275 -0.036567583362581459
decision_type=2 2 2 2 2 2 2 2
left_child=1 2 3 7 -4 -6 -5 -1
right_child=-2 -3 4 6 5 -7 -8 -9
leaf_value=-0.059260275913990669 0.047688776907739622 -0.067016232835590286 -0.066911545337258044 0.016445023967700183 0.062859712654195765 -0.04384678587285213 0.091466870661815691 0.019611325532091724
leaf_weight=1.0370691244024786 1.3734864504076547 1.2101738171186287 1.7739846026524899 1.6924302838742713 1.146508764475584 1.7090600226074457 1.4630944668315371 1.8995642336085419
leaf_count=28 19 26 30 26 16 25 35 29
internal_value=2.13199e-05 -0.00546571 0.00148158 0.0225622 -0.026259 -0.00100421 0.0512297 -0.0082421
internal_weight=13.3054 11.9319 10.7217 6.09216 4.62955 2.85557 3.15552 2.93663
internal_count=234 215 189 118 71 41 61 57
is_linear=0
shrinkage=0.1


Tree=65
num_leaves=11
num_cat=0
split_feature=8 3 4 7 1 3 6 1 8 8
split_gain=0.327731 0.745019 0.769462 0.615025 0.814252 0.609913 0.548433 0.81405 0.176163 0.069134
threshold=0.24746154255456046 0.81555745032049221 1.1667855362186714 -0.49318923842128537 -1.0023892404374171 -0.1405407255367464 -0.65762721603632246 0.41221510038342379 0.51314475406865168 -0.66714025320392245
decision_type=2 2 2 2 2 2 2 2 2 2
left_child=3 2 5 4 -1 8 9 -8 -2 -5
right_child=1 -3 -4 6 -6 -7 7 -9 -10 -11
leaf_value=0.029783002739902639 -0.030397671482594077 -0.094915924779409161 0.07050133715270146 0.059860789781183588 -0.073025670687464683 0.018064910321700295 -0.029606571975560155 0.06317556258201322 -0.10554341124171113 0.1059341162819617
leaf_weight=1.496071267873049 0.50234920182265363 1.0551195219159124 1.1013818783685563 0.53863649861887097 1.5881594230886538 1.3711682539433252 2.0229749502614145 1.7756564067676661 0.82314862788189203 0.82375950179993995
leaf_count=11 9 10 12 22 32 19 26 31 38 24
internal_value=3.78968e-05 -0.0205797 7.1291e-05 0.0121735 -0.0231562 -0.028694 0.0332864 0.0137641 -0.077064 0.0877186
internal_weight=13.0984 4.85317 3.79805 8.24526 3.08423 2.69667 5.16103 3.79863 1.3255 1.3624
internal_count=234 88 78 146 43 66 103 57 47 46
is_linear=0
shrinkage=0.1


Tree=66
num_leaves=10
num_cat=0
split_feature=9 5 0 3 0 0 0 6 7
split_gain=0.302132 0.51399 0.49392 0.900594 0.8797 0.532511 0.484186 0.455029 0.498766
threshold=1.0000000180025095e-35 -0.036567583362581459 1.0000000180025095e-35 -0.43825536492038275 0.55617316113045157 -0.70288818467253544 0.07305121900484475 0.05288345061623409 -0.081058426296179459
decision_type=2 2 2 2 2 2 2 2 2
left_child=1 6 5 -4 -5 -2 -1 -3 -9
right_child=2 7 3 4 -6 -7 -8 8 -10
leaf_value=-0.11066431571838364 0.00089382497042894346 0.042937851436243457 -0.085608166887322978 -0.041753154897475192 0.072641759243741028 0.080625985447749737 -0.003084279550343791 -0.070800068695596033 0.024128461218056077
leaf_weight=0.95107827847823478 1.6406100662425163 1.6247024293988945 1.1369409868493678 1.2365927738137545 1.4729697781149296 1.711476889438927 0.74690753966569901 1.1907105585560205 1.0342218391597269
leaf_count=37 21 24 19 14 32 36 11 26 14
internal_value=2.75287e-05 -0.0175104 0.0135432 -0.0109096 0.0204341 0.0416027 -0.0633422 0.00270494 -0.0266742
internal_weight=12.7462 5.54762 7.19859 3.8465 2.70956 3.35209 1.69799 3.84963 2.22493
internal_count=234 112 122 65 46 57 48 64 40
is_linear=0
shrinkage=0.1


Tree=67
num_leaves=9
num_cat=0
split_feature=5 5 5 9 1 0 8 7
split_gain=0.292153 0.472838 0.562801 0.914624 0.70839 0.529862 0.435706 0.306429
threshold=1.1943710805123755 0.35525970588542538 0.19612932988545459 1.0000000180025095e-35 -0.51611899828025309 -0.25425713042089665 0.24746154255456046 -0.3808686526831272
decision_type=2 2 2 2 2 2 2 2
left_child=1 2 3 6 -5 -3 -1 -7
right_child=-2 5 -4 4 -6 7 -8 -9
leaf_value=-0.012648450135109016 -0.037941537335421875 -0.0046886513276904037 -0.071318274847221905 0.11824747096621389 0.0088595781564942116 0.024349474913233266 -0.10769215244287839 0.097930100679392632
leaf_weight=1.3348389209713771 1.7439083801582462 2.1205648574978113 1.2551540262065826 0.82336204987950523 2.1069980366155519 1.0316777862608435 0.75522716884734098 1.2538490509614346
leaf_count=23 23 25 19 22 44 15 36 27
internal_value=7.86387e-06 0.00620355 -0.0114258 0.00354789 0.039595 0.031313 -0.0469917 0.0647161
internal_weight=12.4256 10.6817 6.27558 5.02043 2.93036 4.40609 2.09007 2.28553
internal_count=234 211 144 125 66 67 59 42
is_linear=0
shrinkage=0.1


Tree=68
num_leaves=7
num_cat=0
split_feature=2 2 5 3 4 0
split_gain=0.336462 0.597338 0.455014 0.615439 0.958907 0.5157
threshold=-1.1433508296932577 -0.95484843954768961 1.1943710805123755 0.11694013204475658 1.4998414344121676 0.12500772963125487
decision_type=2 2 2 2 2 2
left_child=-1 -2 3 4 -3 -5
right_child=1 2 -4 5 -6 -7
leaf_value=0.054417733848327134 -0.076358599593443779 -0.025861430438177457 -0.049800531924733146 -0.0047372917140604135 0.072669763698008968 0.088436916442296898
leaf_weight=1.0406641028821475 1.0623727496713389 4.8922013986739312 1.4285781988874067 0.96226424723863635 1.2375664222054181 1.5522870805580167
leaf_count=24 16 107 19 22 16 30
internal_value=4.11157e-05 -0.00504074 0.00248105 0.0111212 -0.00596852 0.0527812
internal_weight=12.1759 11.1353 10.0729 8.64432 6.12977 2.51455
internal_count=234 210 194 175 123 52
is_linear=0
shrinkage=0.1


Tree=69
num_leaves=10
num_cat=0
split_feature=8 3 4 7 1 7 6 1 8
split_gain=0.280014 0.596828 0.640978 0.544798 0.894734 0.513011 0.478954 0.667502 0.0663386
threshold=0.24746154255456046 0.81555745032049221 -0.37862738715289973 -0.49318923842128537 -0.64873815523220679 -0.30384362567048234 -0.65762721603632246 0.41221510038342379 -0.61859562552281744
decision_type=2 2 2 2 2 2 2 2 2
left_child=3 2 -2 4 -1 -4 8 -8 -5
right_child=1 -3 5 6 -6 -7 7 -9 -10
leaf_value=0.02794391039783552 -0.066308710491862474 -0.089183656532365985 -0.015352245495268139 0.05877513139806273 -0.083685038771498965 0.077638854614394293 -0.027008934915041746 0.060917777838508248 0.10610932964099543
leaf_weight=1.5926624946296217 1.0291769169853071 0.97186279669404019 1.2688797509763392 0.50382600724697113 1.307484363671392 1.1141938040964303 1.8604896841570737 1.6110281478613613 0.71808187756687381
leaf_count=14 30 10 34 24 29 14 26 31 22
internal_value=7.45787e-05 -0.0200481 -0.000357189 0.0116923 -0.0223822 0.0281253 0.0327475 0.0137952 0.0865921
internal_weight=11.9777 4.38411 3.41225 7.59357 2.90015 2.38307 4.69343 3.47152 1.22191
internal_count=234 88 78 146 43 48 103 57 46
is_linear=0
shrinkage=0.1


Tree=70
num_leaves=6
num_cat=0
split_feature=2 2 2 5 1
split_gain=0.28094 0.475413 0.422596 0.737107 0.816336
threshold=-1.1433508296932577 -0.95484843954768961 -0.49435891840778917 0.65163534552903757 -1.5107626754199066
decision_type=2 2 2 2 2
left_child=-1 -2 -3 4 -4
right_child=1 2 3 -5 -6
leaf_value=0.05081510151355343 -0.069445667283961995 0.042389379003061903 0.10004248764732671 -0.058264463459443541 -0.0059249007608131845
leaf_weight=0.99809695547446686 1.0241651064716268 2.0592593464534712 0.86407803371548375 2.1498849182389677 4.5820243441266966
leaf_count=24 16 39 9 27 119
internal_value=7.87736e-05 -0.00466304 0.00220868 -0.00868425 0.0108879
internal_weight=11.6775 10.6794 9.65525 7.59599 5.4461
internal_count=234 210 194 155 128
is_linear=0
shrinkage=0.1


Tree=71
num_leaves=9
num_cat=0
split_feature=9 2 2 0 4 3 7 1
split_gain=0.304392 0.492467 0.803888 1.09213 0.366923 0.302234 0.845104 0.233491
threshold=1.0000000180025095e-35 0.25004870575812027 -0.19134925836381014 -0.082550863191119664 0.79791341492796575 -0.63889941540659645 0.20595364349175974 0.41221510038342379
decision_type=2 2 2 2 2 2 2 2
left_child=1 2 3 -1 5 -2 7 -7
right_child=4 -3 -4 -5 -6 6 -8 -9
leaf_value=-0.1133296174616729 -0.015851647506956192 -0.080041546223280177 0.070234647847415829 0.0154869815545827 -0.02995564823722436 0.11042845059935741 -0.01630710438845696 0.046623310362152288
leaf_weight=1.021444075915497 1.245770029723644 1.0316594943869857 1.0991444734390827 1.8505175998434422 1.4576559262350199 1.1765344999730594 1.5466652922332285 1.1190387802198527
leaf_count=28 22 28 24 32 20 25 39 16
internal_value=8.5161e-05 -0.0184855 -0.00249374 -0.030328 0.0142785 0.026951 0.0408289 0.0793249
internal_weight=11.5484 5.00277 3.97111 2.87196 6.54566 5.08801 3.84224 2.29557
internal_count=234 112 84 60 122 102 80 41
is_linear=0
shrinkage=0.1


Tree=72
num_leaves=9
num_cat=0
split_feature=7 1 8 1 0 0 9 1
split_gain=0.261288 0.764281 0.506889 0.600681 0.406141 0.737004 0.755947 0.000580829
threshold=-0.71422400731152436 -0.64873815523220679 0.26147933286996211 0.5448342573353776 0.68268219920849849 0.24699585022506601 1.0000000180025095e-35 -0.074055141773740327
decision_type=2 2 2 2 2 2 2 2
left_child=1 -1 4 -4 5 6 -2 -3
right_child=2 7 3 -5 -6 -7 -8 -9
leaf_value=0.019660300532894741 -0.019879362367033943 -0.10906205861670547 -0.06995670933418574 0.017003250808507449 0.07391021045863809 -0.05902527148373702 0.07189328609665635 -0.103750661380765
leaf_weight=1.1559017095714805 1.5696670738980159 0.38435052370186884 1.5454572071321311 1.6343835083534939 1.2858173421118406 1.1543928186874834 2.0962110096588731 0.44341474660905167
leaf_count=14 24 11 26 31 36 17 46 29
internal_value=7.75248e-05 -0.032867 0.00711517 -0.0252608 0.0239754 0.0106552 0.0325978 -0.106217
internal_weight=11.2696 1.98367 9.28593 3.17984 6.10609 4.82027 3.66588 0.827765
internal_count=234 54 180 57 123 87 70 40
is_linear=0
shrinkage=0.1


Tree=73
num_leaves=9
num_cat=0
split_feature=7 1 8 1 6 2 5 1
split_gain=0.222378 0.69319 0.423078 0.507905 0.359962 0.416591 0.374209 0.000425502
threshold=-0.71422400731152436 -0.64873815523220679 0.26147933286996211 0.5448342573353776 -0.65762721603632246 0.30643939115975261 0.25895774583629455 -0.074055141773740327
decision_type=2 2 2 2 2 2 2 2
left_child=1 -1 4 -4 5 -2 -6 -3
right_child=2 7 3 -5 6 -7 -8 -9
leaf_value=0.017719418915198602 0.113757286568482 -0.10815519994909631 -0.065418891378611885 0.015318079146831771 -0.021993695914911834 0.0096878685600697238 0.036315768261879926 -0.10338984206384459
leaf_weight=1.1543489899486301 0.80197747889906057 0.35054167197085906 1.4903647885657849 1.6328533731866626 2.1619236022233954 0.73917445447295904 2.2419951288029552 0.40254714194452479
leaf_count=14 27 11 26 31 38 22 36 29
internal_value=6.37097e-05 -0.0309723 0.00659188 -0.0232087 0.0222475 0.063843 0.00769112 -0.105608
internal_weight=10.9757 1.90744 9.06829 3.12322 5.94507 1.54115 4.40392 0.753089
internal_count=234 54 180 57 123 49 74 40
is_linear=0
shrinkage=0.1


Tree=74
num_leaves=7
num_cat=0
split_feature=4 1 1 2 6 2
split_gain=0.199026 0.444519 0.598783 0.474198 0.426984 0.455178
threshold=1.4998414344121676 0.94269172819123914 0.50062787168472644 -0.49435891840778917 0.23051111727937332 0.57214992282006949
decision_type=2 2 2 2 2 2
left_child=1 2 4 -4 5 -1
right_child=-2 -3 3 -5 -6 -7
leaf_value=0.023746139008072285 0.034365864318584349 -0.063390140538694892 0.10359942299494168 -0.00081570662456044516 -0.058682626821271205 -0.041349034016112313
leaf_weight=3.3405014140298572 1.4606522787362344 1.1552257527364407 0.93019634881056845 0.81692342192400225 1.4649750376702284 1.5833499741274861
leaf_count=86 22 28 21 25 30 22
internal_value=5.1482e-05 -0.00534303 0.00289909 0.0547767 -0.0112876 0.00281365
internal_weight=10.7518 9.29117 8.13595 1.74712 6.38883 4.92385
internal_count=234 212 184 46 138 108
is_linear=0
shrinkage=0.1


Tree=75
num_leaves=9
num_cat=0
split_feature=1 4 0 5 0 2 3 9
split_gain=0.214121 0.371263 0.500908 0.519452 0.462183 0.461207 0.408142 0.207764
threshold=1.2079300420951469 0.070222638780589 0.31711799864996054 -0.51226959916776016 -0.25425713042089665 0.25004870575812027 1.0000000180025095e-35 1.0000000180025095e-35
decision_type=2 2 2 2 2 2 2 2
left_child=1 2 3 -1 -3 -4 -6 -5
right_child=-2 4 5 7 6 -7 -8 -9
leaf_value=-0.031673824024789979 0.041906908846571604 -0.070453549064589227 -0.07166371606473558 0.03353942810553822 -0.044456021373359071 0.027616013069805986 0.03558482347506544 0.090764136306176357
leaf_weight=0.87389074510428955 1.0964436617214239 1.5518145482055841 1.0814014675561336 1.5214761763345446 1.181812323862687 0.82482628757134069 1.3821215820498762 1.0882719294168055
leaf_count=25 19 37 27 32 22 25 23 24
internal_value=6.30828e-05 -0.00476347 0.0125063 0.035057 -0.0273795 -0.0287053 -0.00130897 0.0574023
internal_weight=10.6021 9.50562 5.38987 3.48364 4.11575 1.90623 2.56393 2.60975
internal_count=234 215 133 81 82 52 45 56
is_linear=0
shrinkage=0.1


Tree=76
num_leaves=10
num_cat=0
split_feature=4 9 2 6 5 0 3 0 0
split_gain=0.192703 0.443632 0.560369 0.587997 0.429453 0.400465 0.688749 0.693204 0.608418
threshold=1.5788962888071381 1.0000000180025095e-35 0.21817003414899108 0.6449756728266981 0.25895774583629455 -1.0000000180025095e-35 -0.43825536492038275 0.55617316113045157 -0.62519613475338531
decision_type=2 2 2 2 2 2 2 2 2
left_child=1 2 3 4 -1 8 -7 -8 -3
right_child=-2 5 -4 -5 -6 6 7 -9 -10
leaf_value=-0.029274617214672095 0.039759572914436228 -0.0019014068688071363 -0.10594172139853966 -0.080071499655825565 0.058392902921434488 -0.082695170869101442 -0.036072526759616766 0.079385919702179994 0.098851585288253219
leaf_weight=1.0814630090026178 1.0944340410642333 1.3082624073140325 0.78255162574350823 0.89007514680270094 1.1561353234574197 0.91651786910369937 1.0455181784927865 1.0345701635815201 1.1060965829528857
leaf_count=28 18 20 27 26 23 19 14 29 30
internal_value=6.3988e-05 -0.00459681 -0.0302601 -0.0113244 0.0160219 0.0139487 -0.0104704 0.0213529 0.0442568
internal_weight=10.4156 9.32119 3.91023 3.12767 2.2376 5.41097 2.99661 2.08009 2.41436
internal_count=234 216 104 77 51 112 62 43 50
is_linear=0
shrinkage=0.1


Tree=77
num_leaves=6
num_cat=0
split_feature=5 6 1 3 0
split_gain=0.192227 0.304967 0.581785 0.806883 1.23302
threshold=1.1943710805123755 -1.0128825493626008 -0.51611899828025309 0.1712811758024804 0.17302024685486603
decision_type=2 2 2 2 2
left_child=1 -1 -3 4 -4
right_child=-2 2 3 -5 -6
leaf_value=-0.038584071648556151 -0.033770897583618779 0.062275399848664127 0.012042834669223929 0.056290756167928883 -0.10808524525366961
leaf_weight=1.3191670076921571 1.4400876723229892 1.8422986976802329 2.593088646186517 1.632942530326545 1.2743467972613869
leaf_count=39 23 33 76 37 26
internal_value=6.01491e-05 0.00568478 0.013638 -0.00265261 -0.0275402
internal_weight=10.1019 8.66184 7.34268 5.50038 3.86744
internal_count=234 211 172 139 102
is_linear=0
shrinkage=0.1


Tree=78
num_leaves=9
num_cat=0
split_feature=9 2 2 0 5 1 7 2
split_gain=0.196614 0.37109 0.646944 0.893465 0.287121 0.450683 0.459125 0.361596
threshold=1.0000000180025095e-35 0.25004870575812027 -0.19134925836381014 -0.082550863191119664 0.19612932988545459 -0.51611899828025309 -0.33889444273662289 -0.49435891840778917
decision_type=2 2 2 2 2 2 2 2
left_child=1 2 3 -1 5 -2 -7 -6
right_child=4 -3 -4 -5 7 6 -8 -9
leaf_value=-0.1108587578311252 0.11232189331680389 -0.07447167395512351 0.067988826671045915 0.015762219686478278 0.037872903771702722 -0.043330973493846618 0.061113933824085226 -0.031032955616882876
leaf_weight=0.85813037704792861 0.61972885881550643 0.86887161328922946 0.96671062742825631 1.5894797658547755 1.1819350286386909 0.78531027445569646 0.90694406395778027 2.1413100231438875
leaf_count=28 22 28 24 32 27 17 27 29
internal_value=2.63723e-05 -0.0161231 -0.00127464 -0.028631 0.0123012 0.0393635 0.0126451 -0.00652611
internal_weight=9.91842 4.28319 3.41432 2.44761 5.63523 2.31198 1.69225 3.32325
internal_count=234 112 84 60 122 66 44 56
is_linear=0
shrinkage=0.1


Tree=79
num_leaves=9
num_cat=0
split_feature=8 7 4 4 4 6 1 4
split_gain=0.189565 0.476825 0.499466 0.42296 0.453882 0.36325 0.485753 0.0447698
threshold=0.24746154255456046 -0.49318923842128537 -0.23502846476911129 -0.37862738715289973 0.070222638780589 -0.65762721603632246 0.41221510038342379 -0.10543033569852465
decision_type=2 2 2 2 2 2 2 2
left_child=1 2 -1 -2 -5 7 -7 -3
right_child=3 5 -4 4 -6 6 -8 -9
leaf_value=0.023658410022433463 -0.073694239874389264 0.060776974270443901 -0.069397122178153428 0.061685822647865152 -0.027111082126971577 -0.02357457227300257 0.059218528208014265 0.10487416039569966
leaf_weight=1.1010042721172797 0.99439390824409235 0.39812337304465473 1.2114532699342815 0.87311339040752534 1.6895188962807877 1.5324860452674332 1.3181952778249977 0.54594644764438305
leaf_count=21 33 21 22 18 37 26 31 25
internal_value=1.4058e-05 0.0107026 -0.0250916 -0.0183375 0.00314287 0.032515 0.0147101 0.086278
internal_weight=9.66423 6.10721 2.31246 3.55703 2.56263 3.79475 2.85068 0.94407
internal_count=234 146 43 88 55 103 57 46
is_linear=0
shrinkage=0.1


Tree=80
num_leaves=9
num_cat=0
split_feature=4 9 6 3 3 8 1 8
split_gain=0.184019 0.414787 0.374557 0.519275 0.344008 0.855431 0.27343 0.00100415
threshold=1.5788962888071381 1.0000000180025095e-35 1.059440228374023 -0.54747237951204653 0.11694013204475658 -0.6321709009061719 -1.0908020117387196 0.13628936853087739
decision_type=2 2 2 2 2 2 2 2
left_child=1 4 3 -3 5 -1 -5 -7
right_child=-2 2 -4 6 -6 7 -8 -9
leaf_value=0.031637096454311509 0.040000201234003829 -0.016958566621086711 -0.046313492097083027 -0.0023765885202779707 0.0044578310926726636 -0.10920636406726335 0.075299543561649487 -0.10363682173080002
leaf_weight=0.68672809377312649 1.0267808740027256 1.6350272479467078 0.85271954024210561 0.60335052199661632 1.536996815819293 0.64973853668197834 1.8207733300514544 0.64512905513402075
leaf_count=12 18 29 17 10 31 14 56 47
internal_value=3.00125e-05 -0.00483812 0.0139355 0.0265922 -0.0310456 -0.0585834 0.0559664 -0.106432
internal_weight=9.45724 8.43046 4.91187 4.05915 3.51859 1.9816 2.42412 1.29487
internal_count=234 216 112 95 104 73 66 61
is_linear=0
shrinkage=0.1


Tree=81
num_leaves=9
num_cat=0
split_feature=1 3 3 2 0 4 4 0
split_gain=0.19912 0.297929 0.35896 0.690111 0.427225 0.245287 0.182065 0.177466
threshold=1.2079300420951469 1.2998305171040117 1.0000000180025095e-35 -0.95484843954768961 0.22073887379261967 -0.34239636121014089 -1.0000000180025095e-35 0.75540343804545584
decision_type=2 2 2 2 2 2 2 2
left_child=1 2 4 -4 5 -1 -5 -6
right_child=-2 -3 3 6 7 -7 -8 -9
leaf_value=0.034278806362299873 0.04225404823929272 -0.054327454306942059 -0.047382337365272996 0.033739268874665732 -0.091552711958320432 -0.020924053882279497 0.10109898719612626 -0.024994926596403177
leaf_weight=1.6737440947035782 0.99483537510968822 1.0701341014355419 0.71498493105173144 0.73375760484486829 0.73492133803665616 1.5506311921635636 0.88549877004697886 0.88064982602372766
leaf_count=46 19 20 13 22 22 43 22 27
internal_value=-7.29321e-06 -0.00510693 0.00223502 0.0344445 -0.0132992 0.00773125 0.0705753 -0.055272
internal_weight=9.23916 8.24432 7.17419 2.33424 4.83995 3.22438 1.61926 1.61557
internal_count=234 215 195 57 138 89 44 49
is_linear=0
shrinkage=0.1


Tree=82
num_leaves=10
num_cat=0
split_feature=4 9 1 3 3 6 2 4 8
split_gain=0.163972 0.336008 0.335238 0.77251 0.291362 0.337751 0.224281 0.0724867 0.000622765
threshold=1.4998414344121676 1.0000000180025095e-35 -1.7096914108478376 0.11694013204475658 -0.63889941540659645 -0.42079032715213704 0.059173910462150321 -0.064316774516143052 0.13628936853087739
decision_type=2 2 2 2 2 2 2 2 2
left_child=1 2 -1 8 -3 6 -6 -7 -4
right_child=-2 4 3 -5 5 7 -8 -9 -10
leaf_value=0.035835140163668143 0.032568922390725744 -0.031851561239581334 -0.10782267580811132 0.0025569320852668765 0.020351074031646519 0.023024518601357513 0.10671940952434283 -0.014142064838629837 -0.1032030684915976
leaf_weight=0.63132968172431025 1.3212444060482083 1.115270505659282 0.64571206888649635 1.4941509671043602 0.53348949039354898 0.97300925850868258 0.68893643119372427 1.1390463006682696 0.5324524215538986
leaf_count=8 22 25 19 31 17 24 27 16 45
internal_value=5.95941e-06 -0.00554304 -0.0297032 -0.0451865 0.0123943 0.027193 0.0690267 0.00298032 -0.105735
internal_weight=9.07464 7.7534 3.30365 2.67232 4.44975 3.33448 1.22243 2.11206 1.17816
internal_count=234 212 103 95 109 84 44 40 64
is_linear=0
shrinkage=0.1


Tree=83
num_leaves=11
num_cat=0
split_feature=1 8 7 3 2 3 1 7 0 8
split_gain=0.169694 0.294277 0.919988 0.424569 0.381877 0.780044 0.706534 0.586437 0.526845 0.248392
threshold=1.2079300420951469 0.24746154255456046 0.13559758955951104 -0.1405407255367464 0.21817003414899108 -0.54747237951204653 -0.64873815523220679 0.34348063388770195 0.38250952722659148 0.53786752540751837
decision_type=2 2 2 2 2 2 2 2 2 2
left_child=1 4 3 9 6 -6 -1 -8 -7 -3
right_child=-2 2 -4 -5 5 8 7 -9 -10 -11
leaf_value=0.089363344587242932 0.039805777480670879 0.022598854121401665 -0.10993926289197001 0.046004820775007046 -0.10565847004085285 -0.036480898412684967 -0.059440036029708043 0.06562270634979335 0.080912164162646641 -0.10429639025606197
leaf_weight=1.2697995021007957 0.9548535122303291 0.25361758278450008 0.96487983618862916 1.1928078876808286 0.73738357867114279 0.8014408550225196 0.96489005675539352 0.61324042268097401 0.73097797040827572 0.3937460299639497
leaf_count=27 19 10 16 20 14 19 31 22 23 33
internal_value=-1.91006e-05 -0.00481879 -0.0308508 0.0106186 0.00944947 -0.0211486 0.0338361 -0.0108423 0.0195167 -0.0545827
internal_weight=8.87764 7.92278 2.80505 1.84017 5.11773 2.2698 2.84793 1.57813 1.53242 0.647364
internal_count=234 215 79 63 136 56 80 53 42 43
is_linear=0
shrinkage=0.1


Tree=84
num_leaves=8
num_cat=0
split_feature=5 5 2 0 0 2 7
split_gain=0.14313 0.316971 0.655221 0.557104 0.36699 0.312873 0.153494
threshold=1.1943710805123755 0.35525970588542538 -0.94028686210320933 1.5089258256428109 -0.25425713042089665 1.0642834223327051 -0.3808686526831272
decision_type=2 2 2 2 2 2 2
left_child=1 2 -1 5 -3 -4 -6
right_child=-2 4 3 -5 6 -7 -8
leaf_value=-0.11730323487713284 -0.032198486145126236 -0.0053746272779005635 0.0041374010624087671 -0.087782708578690985 0.031049212603169188 0.086336103818418719 0.094212831622679405
leaf_weight=0.52218672796152521 1.1924589155241845 1.4982867683283987 2.6428369678906174 0.58238909533247341 0.7349239990580827 0.56143111246637989 0.80740882270038106
leaf_count=12 23 25 102 12 15 18 27
internal_value=-6.23578e-05 0.00515177 -0.0122937 0.0021873 0.0298736 0.0185397 0.0641153
internal_weight=8.54192 7.34946 4.30884 3.78666 3.04062 3.20427 1.54233
internal_count=234 211 144 132 67 120 42
is_linear=0
shrinkage=0.1


Tree=85
num_leaves=7
num_cat=0
split_feature=2 4 7 8 6 3
split_gain=0.151876 0.316303 0.554661 0.553975 0.305939 0.0717476
threshold=1.5521988848919734 1.5788962888071381 -0.71422400731152436 0.51314475406865168 0.40813878394251252 -0.50313085397629165
decision_type=2 2 2 2 2 2
left_child=1 2 5 4 -4 -1
right_child=-2 -3 3 -5 -6 -7
leaf_value=-0.048742139113247172 -0.037407542270450775 0.065438119591074248 0.044272543842822004 -0.050296064923139955 -0.0095309987292462716 -0.10803068558885609
leaf_weight=0.39499626596807502 0.96331838984042395 0.77077724924311031 2.9113931363681331 1.2537377418484537 1.6591177213704211 0.42236326914280642
leaf_count=32 18 16 87 39 31 11
internal_value=-5.42831e-05 0.00480017 -0.00223703 0.00858886 0.0247416 -0.079379
internal_weight=8.3757 7.41239 6.64161 5.82425 4.57051 0.81736
internal_count=234 216 200 157 118 43
is_linear=0
shrinkage=0.1


Tree=86
num_leaves=8
num_cat=0
split_feature=2 2 1 4 4 7 2
split_gain=0.153166 0.567671 0.502432 0.479963 0.466612 0.572372 0.348675
threshold=-0.49435891840778917 -0.19134925836381014 0.89848534254058798 -0.37862738715289973 -0.34239636121014089 -0.3808686526831272 -0.94028686210320933
decision_type=2 2 2 2 2 2 2
left_child=3 -2 4 -1 -3 -6 -5
right_child=1 2 -4 6 5 -7 -8
leaf_value=-0.037008081309761964 -0.075656418139735296 0.033529328042216887 0.077712652969549351 0.00076028282671876434 -0.11183288521242148 -0.0022862832244987634 0.088948407675466107
leaf_weight=0.99239000165835056 1.0564495694125069 1.4562070792890152 0.79898506205063302 0.81124759989324968 0.72790165070910018 1.3834944287082185 1.0021862322464581
leaf_count=33 33 37 20 26 20 45 20
internal_value=-6.60482e-05 -0.00987946 0.00603457 0.0189011 -0.0100181 -0.0400524 0.0494971
internal_weight=8.22886 5.42304 4.36659 2.80582 3.5676 2.1114 1.81343
internal_count=234 155 122 79 102 65 46
is_linear=0
shrinkage=0.1


Tree=87
num_leaves=9
num_cat=0
split_feature=9 5 2 2 1 1 0 7
split_gain=0.154459 0.514586 0.236278 0.393828 0.378558 0.223589 0.504342 0.492779
threshold=1.0000000180025095e-35 -0.66914263138569907 -0.52538015013175732 0.13984175213534097 -1.0000000180025095e-35 -1.5107626754199066 -0.25425713042089665 -0.33889444273662289
decision_type=2 2 2 2 2 2 2 2
left_child=1 -1 -2 -4 -5 -3 -7 -8
right_child=2 5 3 4 -6 6 7 -9
leaf_value=-0.10743616359624007 0.049554836335426102 0.049684459354194382 -0.055749918104155895 -0.010773027616628862 0.070380109598779453 -0.079909386054311374 -0.055078213789119507 0.067650660883492683
leaf_weight=0.52396682577091303 1.2196340544614939 0.69555020332336503 0.96727348980493877 1.5364148519001903 0.91840194864198554 0.77820618759142335 0.52986350946594107 0.8551847634371349
leaf_count=26 35 8 32 36 19 29 24 25
internal_value=-8.129e-05 -0.0163331 0.0117626 -0.00170657 0.0195882 0.000364466 -0.0154934 0.0206996
internal_weight=8.0245 3.38277 4.64172 3.42209 2.45482 2.8588 2.16325 1.38505
internal_count=234 112 122 87 55 86 78 49
is_linear=0
shrinkage=0.1


Tree=88
num_leaves=10
num_cat=0
split_feature=8 7 7 1 3 2 1 5 6
split_gain=0.133169 0.332103 0.326705 0.389374 0.264577 0.382484 0.255675 0.532902 0.307624
threshold=0.24746154255456046 0.13559758955951104 -0.49318923842128537 -1.0023892404374171 -0.1405407255367464 0.57214992282006949 -1.0908020117387196 0.25895774583629455 0.34892956172146611
decision_type=2 2 2 2 2 2 2 2 2
left_child=2 4 3 -1 5 -2 -4 8 -8
right_child=1 -3 6 -5 -6 -7 7 -9 -10
leaf_value=0.021572974005810278 -0.10350865369873517 -0.06216474792816791 -0.027539573202522247 -0.06929803960398255 0.03950870740238626 0.047697625558130195 0.04295558573043904 0.096612481922756011 -0.052475023232560314
leaf_weight=0.95964656583964825 0.39687192199926347 1.0458117264788596 0.62320274440571699 0.92706816084682919 1.0892858644947412 0.28919380711158738 0.8086814091075214 1.0856675449758766 0.58009730558842421
leaf_count=11 35 19 16 32 22 12 42 37 8
internal_value=-0.000100016 -0.0174616 0.00972672 -0.023078 0.00887174 -0.0397714 0.0297074 0.0441253 0.00309392
internal_weight=7.80553 2.82116 4.98436 1.88671 1.77535 0.686066 3.09765 2.47445 1.38878
internal_count=234 88 146 43 69 47 103 87 50
is_linear=0
shrinkage=0.1


Tree=89
num_leaves=8
num_cat=0
split_feature=5 5 0 2 0 2 7
split_gain=0.135751 0.234092 0.286187 0.676819 0.265084 0.264411 0.137047
threshold=1.1943710805123755 0.35525970588542538 1.5089258256428109 -0.94028686210320933 -0.25425713042089665 -0.52538015013175732 -0.3808686526831272
decision_type=2 2 2 2 2 2 2
left_child=1 2 3 -1 -3 -5 -6
right_child=-2 4 -4 5 6 -7 -8
leaf_value=-0.11497542779755816 -0.033356490673349344 -0.0032197664016180741 -0.07921011105284409 0.087068969456729109 0.026876302628195372 0.0047103573535287836 0.09119196119592432
leaf_weight=0.44158153748139772 1.0556918791262431 1.3461281226482245 0.52348146028816689 0.46450919541530389 0.64768964936956763 2.4242627728235675 0.67826494481414534
leaf_count=12 23 25 12 18 15 102 27
internal_value=-8.72045e-05 0.00529474 -0.0104759 0.00032803 0.0280401 0.0179535 0.0597757
internal_weight=7.58161 6.52592 3.85383 3.33035 2.67208 2.88877 1.32595
internal_count=234 211 144 132 67 120 42
is_linear=0
shrinkage=0.1


Tree=90
num_leaves=7
num_cat=0
split_feature=2 2 5 3 4 0
split_gain=0.229918 0.198329 0.214291 0.269881 0.506007 0.351586
threshold=-1.1433508296932577 -0.95484843954768961 1.1943710805123755 0.11694013204475658 1.4998414344121676 0.12500772963125487
decision_type=2 2 2 2 2 2
left_child=-1 -2 3 4 -3 -5
right_child=1 2 -4 5 -6 -7
leaf_value=0.059798559968740478 -0.059489091343072557 -0.025582069612485537 -0.046218636982327588 -0.016622435384252638 0.063920583731727224 0.080498241909613147
leaf_weight=0.59044281695969392 0.61348847748013202 3.0155082187411613 0.86108466738369305 0.61247221124358453 0.79903644276782859 0.95229644514620304
leaf_count=24 16 107 19 22 16 30
internal_value=-7.75163e-05 -0.00523567 9.794e-05 0.00751199 -0.00683386 0.0424839
internal_weight=7.44433 6.85389 6.2404 5.37931 3.81454 1.56477
internal_count=234 210 194 175 123 52
is_linear=0
shrinkage=0.1


Tree=91
num_leaves=10
num_cat=0
split_feature=9 5 5 6 4 4 3 7 1
split_gain=0.137654 0.30088 0.290357 0.287318 0.256946 0.20704 0.213774 0.440354 0.1541
threshold=1.0000000180025095e-35 -0.036567583362581459 0.77568405796806472 0.23051111727937332 -1.0000000180025095e-35 0.79791341492796575 -0.63889941540659645 0.20595364349175974 0.41221510038342379
decision_type=2 2 2 2 2 2 2 2 2
left_child=1 4 3 -3 -1 6 -2 8 -8
right_child=5 2 -4 -5 -6 -7 7 -9 -10
leaf_value=-0.10615034981701321 -0.019786973566344061 0.085969822790149586 -0.051534917448339629 -0.0053520054026848412 -0.0018049605308431288 -0.029314205011343644 0.10636187880989563 -0.012292990195155853 0.041031420842374253
leaf_weight=0.5615081763244234 0.84887458290904794 0.55889249814208619 0.63086716970428813 0.89819528459338471 0.40707812504842911 0.95923437061719585 0.72524615167640172 1.0077871294924987 0.71899601630866528
leaf_count=32 22 19 17 28 16 20 25 39 16
internal_value=-3.75295e-05 -0.0162308 0.00513855 0.0296761 -0.062296 0.0115807 0.0234647 0.0384381 0.073838
internal_weight=7.31668 3.05654 2.08795 1.45709 0.968586 4.26014 3.3009 2.45203 1.44424
internal_count=234 112 64 47 48 122 102 80 41
is_linear=0
shrinkage=0.1


Tree=92
num_leaves=10
num_cat=0
split_feature=2 7 2 6 2 1 2 5 1
split_gain=0.136144 0.252008 0.493151 0.470373 0.373822 0.657766 0.424538 0.33643 0.175692
threshold=1.5521988848919734 -0.30384362567048234 0.097595921887091625 0.70418489504774462 0.21817003414899108 -0.64873815523220679 -0.52538015013175732 0.039058290008356956 0.76586618558863406
decision_type=2 2 2 2 2 2 2 2 2
left_child=1 4 3 7 5 -1 -7 -3 -4
right_child=-2 2 8 -5 -6 6 -8 -9 -10
leaf_value=0.066137425044807838 -0.037523046446358725 -0.021921766234773585 0.035189770544802171 -0.072978440452122803 -0.074303863952302929 0.009606865794139963 -0.1054760016607189 0.083648511389597557 0.10889745901920299
leaf_weight=0.99992945347912665 0.85213003796525288 0.61189033882692478 0.64063030271790899 0.69762563775293518 0.79672096442664031 0.71765294077340558 0.57930362605838992 0.59577917691785842 0.65304509922862053
leaf_count=17 18 21 31 18 31 27 32 29 10
internal_value=-1.12192e-05 0.00506857 0.0247484 -0.00760476 -0.0152815 0.0051916 -0.0417965 0.0301592 0.0723973
internal_weight=7.14471 6.29258 3.19897 1.9053 3.09361 2.29689 1.29696 1.20767 1.29368
internal_count=234 216 109 68 107 76 59 50 41
is_linear=0
shrinkage=0.1


Tree=93
num_leaves=10
num_cat=0
split_feature=9 5 5 1 7 8 1 0 7
split_gain=0.136297 0.406116 0.187622 0.315185 0.383001 0.208236 0.180534 0.326565 0.359048
threshold=1.0000000180025095e-35 -0.66914263138569907 0.19612932988545459 -0.51611899828025309 -0.3808686526831272 -0.6321709009061719 -1.5107626754199066 -0.25425713042089665 -0.33889444273662289
decision_type=2 2 2 2 2 2 2 2 2
left_child=1 -1 3 -2 -5 -4 -3 -8 -9
right_child=2 6 5 4 -6 -7 7 8 -10
